{"learner":{"attributes":{"scikit_learn":"{\"_estimator_type\": \"regressor\"}"},"feature_names":["store","item","year","month","day","day_of_week","week_of_year","month_sin","month_cos","day_of_week_sin","day_of_week_cos","sales_lag_1","sales_lag_7","sales_lag_14","sales_rolling_7","sales_rolling_14","sales_rolling_30"],"feature_types":["int","int","int","int","int","int","int","float","float","float","float","float","float","float","float","float","float"],"gradient_booster":{"model":{"gbtree_model_param":{"num_parallel_tree":"1","num_trees":"100"},"iteration_indptr":[0,1,2,3,4,5,6,7,8,9,10,11,12,13,14,15,16,17,18,19,20,21,22,23,24,25,26,27,28,29,30,31,32,33,34,35,36,37,38,39,40,41,42,43,44,45,46,47,48,49,50,51,52,53,54,55,56,57,58,59,60,61,62,63,64,65,66,67,68,69,70,71,72,73,74,75,76,77,78,79,80,81,82,83,84,85,86,87,88,89,90,91,92,93,94,95,96,97,98,99,100],"tree_info":[0,0,0,0,0,0,0,0,0,0,0,0,0,0,0,0,0,0,0,0,0,0,0,0,0,0,0,0,0,0,0,0,0,0,0,0,0,0,0,0,0,0,0,0,0,0,0,0,0,0,0,0,0,0,0,0,0,0,0,0,0,0,0,0,0,0,0,0,0,0,0,0,0,0,0,0,0,0,0,0,0,0,0,0,0,0,0,0,0,0,0,0,0,0,0,0,0,0,0,0],"trees":[{"base_weights":[7.340521E-8,-1.5860882E1,2.8750263E1,-2.5430574E1,-4.469039E0,1.9245073E1,5.2151146E1,-3.0462618E1,-1.9635208E1,-9.827798E0,1.6127135E0,1.2438041E1,2.7102823E1,4.5150204E1,6.954226E1,-3.3586033E1,-2.683247E1,-2.329838E1,-1.6561604E1,-1.4488113E1,-7.1279793E0,-3.578094E0,4.517712E0,6.8183556E0,1.6104774E1,2.028784E1,3.1489239E1,3.6289963E1,5.029307E1,6.098742E1,8.025937E1,-3.6085203E0,-3.176154E0,-2.9255164E0,-2.4971874E0,-2.5937955E0,-2.141658E0,-1.8856176E0,-1.2901427E0,-1.741916E0,-1.2641076E0,-9.784307E-1,-4.0464553E-1,-7.274565E-1,-1.9410774E-1,1.9890048E-1,8.4235615E-1,1.9906162E-1,8.7918514E-1,1.266347E0,2.0096111E0,1.495593E0,2.2626827E0,2.829169E0,3.675465E0,3.749891E0,2.0915523E0,4.5791745E0,5.640107E0,5.2623E0,6.4748588E0,7.4499354E0,9.042354E0],"categories":[],"categories_nodes":[],"categories_segments":[],"categories_sizes":[],"default_left":[0,0,0,0,0,0,0,0,0,0,0,0,0,0,0,0,0,0,0,0,0,0,0,0,0,0,0,0,0,0,0,0,0,0,0,0,0,0,0,0,0,0,0,0,0,0,0,0,0,0,0,0,0,0,0,0,0,0,0,0,0,0,0],"id":0,"left_children":[1,3,5,7,9,11,13,15,17,19,21,23,25,27,29,31,33,35,37,39,41,43,45,47,49,51,53,55,57,59,61,-1,-1,-1,-1,-1,-1,-1,-1,-1,-1,-1,-1,-1,-1,-1,-1,-1,-1,-1,-1,-1,-1,-1,-1,-1,-1,-1,-1,-1,-1,-1,-1],"loss_changes":[3.2759456E8,5.0472744E7,5.681157E7,7.337136E6,6.888701E6,9.715216E6,8.979776E6,1.526096E6,1.316272E6,1.413662E6,1.4929711E6,2.005441E6,2.519728E6,2.395272E6,1.936408E6,3.28912E5,2.80056E5,2.64448E5,5.33828E5,2.22912E5,5.823535E5,2.1496631E5,6.269691E5,3.6614412E5,8.08733E5,4.11451E5,8.62568E5,3.58388E5,9.12504E5,3.67164E5,5.4336E5,0E0,0E0,0E0,0E0,0E0,0E0,0E0,0E0,0E0,0E0,0E0,0E0,0E0,0E0,0E0,0E0,0E0,0E0,0E0,0E0,0E0,0E0,0E0,0E0,0E0,0E0,0E0,0E0,0E0,0E0,0E0,0E0],"parents":[2147483647,0,0,1,1,2,2,3,3,4,4,5,5,6,6,7,7,8,8,9,9,10,10,11,11,12,12,13,13,14,14,15,15,16,16,17,17,18,18,19,19,20,20,21,21,22,22,23,23,24,24,25,25,26,26,27,27,28,28,29,29,30,30],"right_children":[2,4,6,8,10,12,14,16,18,20,22,24,26,28,30,32,34,36,38,40,42,44,46,48,50,52,54,56,58,60,62,-1,-1,-1,-1,-1,-1,-1,-1,-1,-1,-1,-1,-1,-1,-1,-1,-1,-1,-1,-1,-1,-1,-1,-1,-1,-1,-1,-1,-1,-1,-1,-1],"split_conditions":[5.8E1,3.6E1,9E1,2.6E1,4.7E1,7.1E1,1.14E2,2.1E1,3E1,3.7E1,4.7E1,5.8E1,7.1E1,8.6E1,1.16E2,1.6E1,2.3E1,2.6E1,3.7E1,3.4E1,4.5E1,3.8E1,5.9E1,4.7E1,6.9E1,5.9E1,8.7E1,1.2E1,1.03E2,9.7E1,1.36E2,-3.6085203E0,-3.176154E0,-2.9255164E0,-2.4971874E0,-2.5937955E0,-2.141658E0,-1.8856176E0,-1.2901427E0,-1.741916E0,-1.2641076E0,-9.784307E-1,-4.0464553E-1,-7.274565E-1,-1.9410774E-1,1.9890048E-1,8.4235615E-1,1.9906162E-1,8.7918514E-1,1.266347E0,2.0096111E0,1.495593E0,2.2626827E0,2.829169E0,3.675465E0,3.749891E0,2.0915523E0,4.5791745E0,5.640107E0,5.2623E0,6.4748588E0,7.4499354E0,9.042354E0],"split_indices":[12,12,12,13,13,13,12,12,11,11,11,11,11,11,11,13,11,12,13,13,12,11,13,11,12,11,13,3,13,11,13,0,0,0,0,0,0,0,0,0,0,0,0,0,0,0,0,0,0,0,0,0,0,0,0,0,0,0,0,0,0,0,0],"split_type":[0,0,0,0,0,0,0,0,0,0,0,0,0,0,0,0,0,0,0,0,0,0,0,0,0,0,0,0,0,0,0,0,0,0,0,0,0,0,0,0,0,0,0,0,0,0,0,0,0,0,0,0,0,0,0,0,0,0,0,0,0,0,0],"sum_hessian":[7.184E5,4.62983E5,2.55417E5,2.51614E5,2.11369E5,1.81639E5,7.3778E4,1.34674E5,1.1694E5,1.12363E5,9.9006E4,9.7328E4,8.4311E4,5.2605E4,2.1173E4,7.2385E4,6.2289E4,5.335E4,6.359E4,4.1215E4,7.1148E4,3.5526E4,6.348E4,3.8431E4,5.8897E4,3.3018E4,5.1293E4,1.9323E4,3.3282E4,1.1778E4,9.395E3,3.0537E4,4.1848E4,2.7051E4,3.5238E4,2.2199E4,3.1151E4,3.9084E4,2.4506E4,1.5929E4,2.5286E4,3.8209E4,3.2939E4,1.0903E4,2.4623E4,3.8534E4,2.4946E4,1.1152E4,2.7279E4,3.163E4,2.7267E4,1.007E4,2.2948E4,3.1917E4,1.9376E4,1.7913E4,1.41E3,1.9166E4,1.4116E4,3.658E3,8.12E3,6.002E3,3.393E3],"tree_param":{"num_deleted":"0","num_feature":"17","num_nodes":"63","size_leaf_vector":"1"}},{"base_weights":[4.8006463E-5,-1.46391115E1,2.5250444E1,-2.375245E1,-5.3360596E0,1.5924106E1,4.4979996E1,-2.7946693E1,-1.8973484E1,-1.0481844E1,1.3078713E-1,9.5955305E0,2.2131018E1,3.801649E1,6.013875E1,-3.1059666E1,-2.5336649E1,-2.2546618E1,-1.6745922E1,-1.4798961E1,-8.089973E0,-4.18671E0,3.05932E0,4.6334214E0,1.263818E1,1.6274157E1,2.6019836E1,3.0440502E1,4.267901E1,5.277682E1,7.0772E1,-3.3201618E0,-2.9596937E0,-2.766868E0,-2.384606E0,-2.518345E0,-2.1264355E0,-1.8962246E0,-1.3930258E0,-1.7487093E0,-1.315836E0,-1.031134E0,-4.981845E-1,-6.73352E-1,-1.8069421E-1,5.9273887E-2,6.5326846E-1,2.812676E-2,6.239981E-1,9.671549E-1,1.5977906E0,9.992901E-1,1.7787018E0,2.1137738E0,2.8923988E0,2.336579E0,3.2685971E0,3.7548172E0,4.7145476E0,4.349891E0,5.572009E0,6.540545E0,8.146647E0],"categories":[],"categories_nodes":[],"categories_segments":[],"categories_sizes":[],"default_left":[0,0,0,0,0,0,0,0,0,0,0,0,0,0,0,0,0,0,0,0,0,0,0,0,0,0,0,0,0,0,0,0,0,0,0,0,0,0,0,0,0,0,0,0,0,0,0,0,0,0,0,0,0,0,0,0,0,0,0,0,0,0,0],"id":1,"left_children":[1,3,5,7,9,11,13,15,17,19,21,23,25,27,29,31,33,35,37,39,41,43,45,47,49,51,53,55,57,59,61,-1,-1,-1,-1,-1,-1,-1,-1,-1,-1,-1,-1,-1,-1,-1,-1,-1,-1,-1,-1,-1,-1,-1,-1,-1,-1,-1,-1,-1,-1,-1,-1],"loss_changes":[2.655534E8,3.8554776E7,4.851168E7,4.603984E6,6.3305375E6,7.032012E6,8.930576E6,9.93248E5,8.54284E5,1.196889E6,1.3796555E6,1.3383005E6,2.0581E6,2.047096E6,2.08136E6,1.7382E5,2.30684E5,1.38874E5,4.12522E5,1.82028E5,5.14981E5,2.672698E5,5.5700994E5,2.356005E5,5.44276E5,3.42555E5,7.69472E5,3.50256E5,8.20824E5,4.27476E5,6.19904E5,0E0,0E0,0E0,0E0,0E0,0E0,0E0,0E0,0E0,0E0,0E0,0E0,0E0,0E0,0E0,0E0,0E0,0E0,0E0,0E0,0E0,0E0,0E0,0E0,0E0,0E0,0E0,0E0,0E0,0E0,0E0,0E0],"parents":[2147483647,0,0,1,1,2,2,3,3,4,4,5,5,6,6,7,7,8,8,9,9,10,10,11,11,12,12,13,13,14,14,15,15,16,16,17,17,18,18,19,19,20,20,21,21,22,22,23,23,24,24,25,25,26,26,27,27,28,28,29,29,30,30],"right_children":[2,4,6,8,10,12,14,16,18,20,22,24,26,28,30,32,34,36,38,40,42,44,46,48,50,52,54,56,58,60,62,-1,-1,-1,-1,-1,-1,-1,-1,-1,-1,-1,-1,-1,-1,-1,-1,-1,-1,-1,-1,-1,-1,-1,-1,-1,-1,-1,-1,-1,-1,-1,-1],"split_conditions":[5.7E1,3.4E1,8.7E1,2.5E1,4.5E1,6.8E1,1.1E2,1.9E1,2.7E1,3.5E1,4.7E1,5.6E1,6.9E1,8.4E1,1.15E2,1.5E1,2.1E1,2.3E1,3.4E1,3.2E1,4.4E1,4.6E1,5.7E1,4.5E1,6.7E1,5.4E1,7.4E1,6.9E1,9.6E1,9.2E1,1.37E2,-3.3201618E0,-2.9596937E0,-2.766868E0,-2.384606E0,-2.518345E0,-2.1264355E0,-1.8962246E0,-1.3930258E0,-1.7487093E0,-1.315836E0,-1.031134E0,-4.981845E-1,-6.73352E-1,-1.8069421E-1,5.9273887E-2,6.5326846E-1,2.812676E-2,6.239981E-1,9.671549E-1,1.5977906E0,9.992901E-1,1.7787018E0,2.1137738E0,2.8923988E0,2.336579E0,3.2685971E0,3.7548172E0,4.7145476E0,4.349891E0,5.572009E0,6.540545E0,8.146647E0],"split_indices":[12,12,12,13,13,13,12,12,11,11,11,11,11,11,11,13,11,12,13,13,12,12,13,11,12,11,12,11,13,11,12,0,0,0,0,0,0,0,0,0,0,0,0,0,0,0,0,0,0,0,0,0,0,0,0,0,0,0,0,0,0,0,0],"split_type":[0,0,0,0,0,0,0,0,0,0,0,0,0,0,0,0,0,0,0,0,0,0,0,0,0,0,0,0,0,0,0,0,0,0,0,0,0,0,0,0,0,0,0,0,0,0,0,0,0,0,0,0,0,0,0,0,0,0,0,0,0,0,0],"sum_hessian":[7.184E5,4.54753E5,2.63647E5,2.29718E5,2.25035E5,1.79023E5,8.4624E4,1.22341E5,1.07377E5,1.15921E5,1.09114E5,8.8644E4,9.0379E4,5.7989E4,2.6635E4,5.579E4,6.6551E4,4.1231E4,6.6146E4,4.1326E4,7.4595E4,4.4099E4,6.5015E4,3.3695E4,5.4949E4,3.6066E4,5.4313E4,2.2095E4,3.5894E4,1.5742E4,1.0893E4,2.263E4,3.316E4,2.5944E4,4.0607E4,1.3484E4,2.7747E4,3.7009E4,2.9137E4,1.5659E4,2.5667E4,4.3502E4,3.1093E4,2.1301E4,2.2798E4,3.8018E4,2.6997E4,9.085E3,2.461E4,2.9102E4,2.5847E4,7.002E3,2.9064E4,2.0261E4,3.4052E4,5.326E3,1.6769E4,1.6709E4,1.9185E4,3.795E3,1.1947E4,7.258E3,3.635E3],"tree_param":{"num_deleted":"0","num_feature":"17","num_nodes":"63","size_leaf_vector":"1"}},{"base_weights":[7.89827E-5,-1.2544204E1,2.3890816E1,-2.0250753E1,-2.838906E0,1.6554298E1,4.3541576E1,-2.5013792E1,-1.57588625E1,-6.9212146E0,2.47014E0,1.1609384E1,2.4173609E1,3.7624825E1,5.750582E1,-2.7459423E1,-2.1999146E1,-1.8614601E1,-1.2387925E1,-1.038941E1,-4.261739E0,-1.0643915E0,5.357677E0,6.885967E0,1.478699E1,1.8993425E1,2.8210285E1,3.1335457E1,4.244489E1,5.1483543E1,6.76859E1,-2.9542935E0,-2.5896301E0,-2.4486053E0,-2.070997E0,-2.098233E0,-1.6966934E0,-1.5042579E0,-1.0161303E0,-1.3880355E0,-9.119232E-1,-6.45492E-1,-1.48184E-1,-4.5720813E-1,3.0247753E-2,3.5546395E-1,9.202326E-1,3.538451E-1,9.1538996E-1,1.2183897E0,1.8901986E0,2.0245166E0,9.3809617E-1,2.544414E0,3.2547548E0,3.2332008E0,1.5726738E0,3.8175735E0,4.610995E0,4.602101E0,5.567247E0,6.367765E0,7.8382707E0],"categories":[],"categories_nodes":[],"categories_segments":[],"categories_sizes":[],"default_left":[0,0,0,0,0,0,0,0,0,0,0,0,0,0,0,0,0,0,0,0,0,0,0,0,0,0,0,0,0,0,0,0,0,0,0,0,0,0,0,0,0,0,0,0,0,0,0,0,0,0,0,0,0,0,0,0,0,0,0,0,0,0,0],"id":2,"left_children":[1,3,5,7,9,11,13,15,17,19,21,23,25,27,29,31,33,35,37,39,41,43,45,47,49,51,53,55,57,59,61,-1,-1,-1,-1,-1,-1,-1,-1,-1,-1,-1,-1,-1,-1,-1,-1,-1,-1,-1,-1,-1,-1,-1,-1,-1,-1,-1,-1,-1,-1,-1,-1],"loss_changes":[2.1529942E8,3.523273E7,3.565784E7,5.617256E6,4.518764E6,6.785392E6,5.55332E6,9.38944E5,1.300632E6,1.0870925E6,9.2499375E5,1.639213E6,1.48166E6,1.430488E6,1.223204E6,2.28364E5,1.82506E5,2.85038E5,3.662E5,2.266965E5,4.067215E5,1.9538419E5,3.4574475E5,3.334665E5,6.9918E5,3.73376E5,4.77104E5,3.18304E5,4.16568E5,2.85204E5,3.13748E5,0E0,0E0,0E0,0E0,0E0,0E0,0E0,0E0,0E0,0E0,0E0,0E0,0E0,0E0,0E0,0E0,0E0,0E0,0E0,0E0,0E0,0E0,0E0,0E0,0E0,0E0,0E0,0E0,0E0,0E0,0E0,0E0],"parents":[2147483647,0,0,1,1,2,2,3,3,4,4,5,5,6,6,7,7,8,8,9,9,10,10,11,11,12,12,13,13,14,14,15,15,16,16,17,17,18,18,19,19,20,20,21,21,22,22,23,23,24,24,25,25,26,26,27,27,28,28,29,29,30,30],"right_children":[2,4,6,8,10,12,14,16,18,20,22,24,26,28,30,32,34,36,38,40,42,44,46,48,50,52,54,56,58,60,62,-1,-1,-1,-1,-1,-1,-1,-1,-1,-1,-1,-1,-1,-1,-1,-1,-1,-1,-1,-1,-1,-1,-1,-1,-1,-1,-1,-1,-1,-1,-1,-1],"split_conditions":[5.9E1,3.7E1,9.2E1,2.5E1,4.9E1,7.5E1,1.14E2,2.1E1,3.2E1,4E1,5.1E1,6E1,7.5E1,9E1,1.2E2,1.6E1,2.1E1,2.6E1,3.4E1,3E1,4.7E1,4E1,6.3E1,5.7E1,7.3E1,1.2E1,9E1,1.2E1,1.04E2,1.03E2,1.44E2,-2.9542935E0,-2.5896301E0,-2.4486053E0,-2.070997E0,-2.098233E0,-1.6966934E0,-1.5042579E0,-1.0161303E0,-1.3880355E0,-9.119232E-1,-6.45492E-1,-1.48184E-1,-4.5720813E-1,3.0247753E-2,3.5546395E-1,9.202326E-1,3.538451E-1,9.1538996E-1,1.2183897E0,1.8901986E0,2.0245166E0,9.3809617E-1,2.544414E0,3.2547548E0,3.2332008E0,1.5726738E0,3.8175735E0,4.610995E0,4.602101E0,5.567247E0,6.367765E0,7.8382707E0],"split_indices":[12,12,12,12,13,13,13,13,13,11,11,11,11,11,11,12,11,11,11,11,12,11,13,13,12,3,13,3,12,11,12,0,0,0,0,0,0,0,0,0,0,0,0,0,0,0,0,0,0,0,0,0,0,0,0,0,0,0,0,0,0,0,0],"split_type":[0,0,0,0,0,0,0,0,0,0,0,0,0,0,0,0,0,0,0,0,0,0,0,0,0,0,0,0,0,0,0,0,0,0,0,0,0,0,0,0,0,0,0,0,0,0,0,0,0,0,0,0,0,0,0,0,0,0,0,0,0,0,0],"sum_hessian":[7.184E5,4.71061E5,2.47339E5,2.62567E5,2.08494E5,1.80101E5,6.7238E4,1.27435E5,1.35132E5,1.17864E5,9.063E4,1.0922E5,7.0881E4,4.723E4,2.0008E4,7.0353E4,5.7082E4,7.3154E4,6.1978E4,5.1153E4,6.6711E4,4.075E4,4.988E4,4.3927E4,6.5293E4,3.1046E4,3.9835E4,2.0495E4,2.6735E4,1.2575E4,7.433E3,3.0149E4,4.0204E4,1.9482E4,3.76E4,3.0013E4,4.3141E4,2.8269E4,3.3709E4,1.3644E4,3.7509E4,3.729E4,2.9421E4,1.1426E4,2.9324E4,3.3957E4,1.5923E4,1.7742E4,2.6185E4,3.9996E4,2.5297E4,2.7468E4,3.578E3,2.4327E4,1.5508E4,1.9264E4,1.231E3,1.2355E4,1.438E4,5.463E3,7.112E3,5.412E3,2.021E3],"tree_param":{"num_deleted":"0","num_feature":"17","num_nodes":"63","size_leaf_vector":"1"}},{"base_weights":[1.1552742E-4,-1.2172588E1,1.9980951E1,-1.8929848E1,-4.252473E0,1.2258376E1,3.6010128E1,-2.221531E1,-1.4174443E1,-8.751981E0,-4.6177703E-1,6.4202204E0,1.6793638E1,2.9870377E1,4.7952442E1,-2.4811975E1,-1.9903273E1,-1.6698015E1,-1.2167045E1,-1.1724731E1,-6.3714485E0,-2.9947011E0,2.9946218E0,2.1185522E0,8.564347E0,1.1826563E1,1.9937635E1,2.37654E1,3.3624577E1,4.122698E1,5.607249E1,-2.7061565E0,-2.3573377E0,-2.18782E0,-1.8599917E0,-1.8624557E0,-1.5606588E0,-1.3357261E0,-9.247103E-1,-1.3987498E0,-1.043325E0,-8.3370847E-1,-4.481728E-1,-5.6776214E-1,-1.2573008E-1,4.745173E-2,5.44735E-1,-1.7558174E-1,3.2363662E-1,6.419558E-1,1.1350255E0,1.2812953E0,4.515845E-1,1.7585344E0,2.4226482E0,2.4711523E0,1.1291565E0,3.0404406E0,3.807223E0,4.2231536E0,2.0719018E0,5.1379066E0,6.475179E0],"categories":[],"categories_nodes":[],"categories_segments":[],"categories_sizes":[],"default_left":[0,0,0,0,0,0,0,0,0,0,0,0,0,0,0,0,0,0,0,0,0,0,0,0,0,0,0,0,0,0,0,0,0,0,0,0,0,0,0,0,0,0,0,0,0,0,0,0,0,0,0,0,0,0,0,0,0,0,0,0,0,0,0],"id":3,"left_children":[1,3,5,7,9,11,13,15,17,19,21,23,25,27,29,31,33,35,37,39,41,43,45,47,49,51,53,55,57,59,61,-1,-1,-1,-1,-1,-1,-1,-1,-1,-1,-1,-1,-1,-1,-1,-1,-1,-1,-1,-1,-1,-1,-1,-1,-1,-1,-1,-1,-1,-1,-1,-1],"loss_changes":[1.747303E8,2.3892028E7,3.366615E7,3.763424E6,3.505588E6,4.859742E6,6.482368E6,8.54816E5,4.9844E5,6.64989E5,9.7663275E5,7.4013525E5,1.612932E6,1.3378E6,1.637336E6,1.8632E5,1.93596E5,9.1401E4,1.9042E5,1.21978E5,1.938225E5,3.0007375E5,2.916047E5,1.15617016E5,3.199225E5,2.88701E5,6.37748E5,2.62228E5,5.1678E5,3.37524E5,5.50636E5,0E0,0E0,0E0,0E0,0E0,0E0,0E0,0E0,0E0,0E0,0E0,0E0,0E0,0E0,0E0,0E0,0E0,0E0,0E0,0E0,0E0,0E0,0E0,0E0,0E0,0E0,0E0,0E0,0E0,0E0,0E0,0E0],"parents":[2147483647,0,0,1,1,2,2,3,3,4,4,5,5,6,6,7,7,8,8,9,9,10,10,11,11,12,12,13,13,14,14,15,15,16,16,17,17,18,18,19,19,20,20,21,21,22,22,23,23,24,24,25,25,26,26,27,27,28,28,29,29,30,30],"right_children":[2,4,6,8,10,12,14,16,18,20,22,24,26,28,30,32,34,36,38,40,42,44,46,48,50,52,54,56,58,60,62,-1,-1,-1,-1,-1,-1,-1,-1,-1,-1,-1,-1,-1,-1,-1,-1,-1,-1,-1,-1,-1,-1,-1,-1,-1,-1,-1,-1,-1,-1,-1,-1],"split_conditions":[5.6E1,3.5E1,8.6E1,2.7E1,4.3E1,6.5E1,1.07E2,2E1,3E1,3.7E1,5.2E1,5.3E1,6.7E1,8.3E1,1.11E2,1.5E1,2.2E1,2.3E1,3.9E1,3.2E1,4.3E1,4.3E1,5.3E1,4.2E1,6.6E1,1.2E1,8.3E1,1.2E1,1.01E2,1.2E1,1.33E2,-2.7061565E0,-2.3573377E0,-2.18782E0,-1.8599917E0,-1.8624557E0,-1.5606588E0,-1.3357261E0,-9.247103E-1,-1.3987498E0,-1.043325E0,-8.3370847E-1,-4.481728E-1,-5.6776214E-1,-1.2573008E-1,4.745173E-2,5.44735E-1,-1.7558174E-1,3.2363662E-1,6.419558E-1,1.1350255E0,1.2812953E0,4.515845E-1,1.7585344E0,2.4226482E0,2.4711523E0,1.1291565E0,3.0404406E0,3.807223E0,4.2231536E0,2.0719018E0,5.1379066E0,6.475179E0],"split_indices":[12,13,12,12,12,13,13,13,11,11,13,11,11,11,11,12,11,11,12,12,13,11,11,11,12,3,13,3,12,3,12,0,0,0,0,0,0,0,0,0,0,0,0,0,0,0,0,0,0,0,0,0,0,0,0,0,0,0,0,0,0,0,0],"split_type":[0,0,0,0,0,0,0,0,0,0,0,0,0,0,0,0,0,0,0,0,0,0,0,0,0,0,0,0,0,0,0,0,0,0,0,0,0,0,0,0,0,0,0,0,0,0,0,0,0,0,0,0,0,0,0,0,0,0,0,0,0,0,0],"sum_hessian":[7.184E5,4.46428E5,2.71972E5,2.40898E5,2.0553E5,1.83545E5,8.8427E4,1.42466E5,9.8432E4,9.3978E4,1.11552E5,8.0247E4,1.03298E5,5.8404E4,3.0023E4,6.7098E4,7.5368E4,4.3606E4,5.4826E4,4.1789E4,5.2189E4,6.4376E4,4.7176E4,2.6694E4,5.3553E4,4.0042E4,6.3256E4,2.2242E4,3.6162E4,1.6425E4,1.3598E4,2.3818E4,4.328E4,2.9958E4,4.541E4,1.5764E4,2.7842E4,3.8947E4,1.5879E4,1.5181E4,2.6608E4,2.5579E4,2.661E4,2.5302E4,3.9074E4,2.3269E4,2.3907E4,5.977E3,2.0717E4,3.026E4,2.3293E4,3.5281E4,4.761E3,4.0854E4,2.2402E4,2.0673E4,1.569E3,2.098E4,1.5182E4,1.5657E4,7.68E2,8.83E3,4.768E3],"tree_param":{"num_deleted":"0","num_feature":"17","num_nodes":"63","size_leaf_vector":"1"}},{"base_weights":[1.2856613E-4,-9.691751E0,2.0357428E1,-1.6429344E1,-1.7691144E0,1.3814157E1,3.4532986E1,-1.963428E1,-1.1824717E1,-5.988006E0,2.2443504E0,1.0042101E1,1.9892677E1,2.8523363E1,4.426348E1,-2.2270617E1,-1.754907E1,-1.4098596E1,-9.792299E0,-9.0025625E0,-3.8132093E0,-1.8054181E-1,5.494426E0,5.925085E0,1.2391035E1,1.5536061E1,2.2743748E1,2.3691448E1,3.237632E1,4.0094406E1,5.411046E1,-2.405395E0,-2.088104E0,-1.963637E0,-1.6361958E0,-1.5689834E0,-1.2803417E0,-1.1045321E0,-7.2314805E-1,-1.1921947E0,-8.0027866E-1,-4.952921E-1,-9.240984E-2,-2.4230647E-1,1.6426627E-1,2.860231E-1,7.7233213E-1,2.1112302E-1,7.1674114E-1,9.089867E-1,1.4528761E0,1.6316779E0,6.259973E-1,1.9483957E0,2.453061E0,2.5030031E0,1.3176473E0,2.2697217E0,3.3298795E0,3.5815423E0,4.454268E0,5.0166087E0,6.5214725E0],"categories":[],"categories_nodes":[],"categories_segments":[],"categories_sizes":[],"default_left":[0,0,0,0,0,0,0,0,0,0,0,0,0,0,0,0,0,0,0,0,0,0,0,0,0,0,0,0,0,0,0,0,0,0,0,0,0,0,0,0,0,0,0,0,0,0,0,0,0,0,0,0,0,0,0,0,0,0,0,0,0,0,0],"id":4,"left_children":[1,3,5,7,9,11,13,15,17,19,21,23,25,27,29,31,33,35,37,39,41,43,45,47,49,51,53,55,57,59,61,-1,-1,-1,-1,-1,-1,-1,-1,-1,-1,-1,-1,-1,-1,-1,-1,-1,-1,-1,-1,-1,-1,-1,-1,-1,-1,-1,-1,-1,-1,-1,-1],"loss_changes":[1.4174106E8,2.5979404E7,2.1491584E7,3.881248E6,3.787396E6,3.63475E6,4.277824E6,8.52116E5,4.98708E5,7.1488925E5,9.0340956E5,9.45991E5,7.53678E5,8.41472E5,1.144728E6,1.69204E5,2.14248E5,1.04788E5,1.828195E5,1.3329025E5,2.0858812E5,2.6841912E5,2.8756212E5,1.6838E5,4.39441E5,1.738215E5,2.1324E5,2.82216E5,2.23954E5,3.7206E5,3.60568E5,0E0,0E0,0E0,0E0,0E0,0E0,0E0,0E0,0E0,0E0,0E0,0E0,0E0,0E0,0E0,0E0,0E0,0E0,0E0,0E0,0E0,0E0,0E0,0E0,0E0,0E0,0E0,0E0,0E0,0E0,0E0,0E0],"parents":[2147483647,0,0,1,1,2,2,3,3,4,4,5,5,6,6,7,7,8,8,9,9,10,10,11,11,12,12,13,13,14,14,15,15,16,16,17,17,18,18,19,19,20,20,21,21,22,22,23,23,24,24,25,25,26,26,27,27,28,28,29,29,30,30],"right_children":[2,4,6,8,10,12,14,16,18,20,22,24,26,28,30,32,34,36,38,40,42,44,46,48,50,52,54,56,58,60,62,-1,-1,-1,-1,-1,-1,-1,-1,-1,-1,-1,-1,-1,-1,-1,-1,-1,-1,-1,-1,-1,-1,-1,-1,-1,-1,-1,-1,-1,-1,-1,-1],"split_conditions":[6.1E1,3.7E1,9E1,2.8E1,4.7E1,7.7E1,1.08E2,2E1,3.2E1,3.9E1,5.6E1,6.2E1,7.4E1,8.7E1,1.27E2,1.7E1,2.1E1,2.8E1,4E1,2.9E1,5.1E1,4.8E1,5.6E1,5.1E1,6.4E1,1.2E1,7.7E1,1.2E1,1E0,1.06E2,1.35E2,-2.405395E0,-2.088104E0,-1.963637E0,-1.6361958E0,-1.5689834E0,-1.2803417E0,-1.1045321E0,-7.2314805E-1,-1.1921947E0,-8.0027866E-1,-4.952921E-1,-9.240984E-2,-2.4230647E-1,1.6426627E-1,2.860231E-1,7.7233213E-1,2.1112302E-1,7.1674114E-1,9.089867E-1,1.4528761E0,1.6316779E0,6.259973E-1,1.9483957E0,2.453061E0,2.5030031E0,1.3176473E0,2.2697217E0,3.3298795E0,3.5815423E0,4.454268E0,5.0166087E0,6.5214725E0],"split_indices":[12,13,13,12,12,12,12,13,11,11,13,13,11,11,13,11,12,13,12,11,13,11,11,11,11,3,13,3,5,11,11,0,0,0,0,0,0,0,0,0,0,0,0,0,0,0,0,0,0,0,0,0,0,0,0,0,0,0,0,0,0,0,0],"split_type":[0,0,0,0,0,0,0,0,0,0,0,0,0,0,0,0,0,0,0,0,0,0,0,0,0,0,0,0,0,0,0,0,0,0,0,0,0,0,0,0,0,0,0,0,0,0,0,0,0,0,0,0,0,0,0,0,0,0,0,0,0,0,0],"sum_hessian":[7.184E5,4.86692E5,2.31708E5,2.63016E5,2.23676E5,1.58533E5,7.3175E4,1.55076E5,1.0794E5,1.09047E5,1.14629E5,9.7828E4,6.0705E4,4.5239E4,2.7936E4,6.8483E4,8.6593E4,5.0941E4,5.6999E4,4.5699E4,6.3348E4,6.5649E4,4.898E4,3.554E4,6.2288E4,2.4015E4,3.669E4,2.0073E4,2.5166E4,1.963E4,8.306E3,2.9985E4,3.8498E4,3.1388E4,5.5205E4,2.2853E4,2.8088E4,3.827E4,1.8729E4,1.1655E4,3.4044E4,4.5427E4,1.7921E4,2.9439E4,3.621E4,2.245E4,2.653E4,8.733E3,2.6807E4,2.4484E4,3.7804E4,2.215E4,1.865E3,1.2995E4,2.3695E4,1.7805E4,2.268E3,2.192E3,2.2974E4,1.001E4,9.62E3,6.133E3,2.173E3],"tree_param":{"num_deleted":"0","num_feature":"17","num_nodes":"63","size_leaf_vector":"1"}},{"base_weights":[1.501059E-4,-1.0383382E1,1.5426425E1,-1.5978874E1,-4.5816803E0,8.895054E0,2.843573E1,-1.9071114E1,-1.3293604E1,-8.103606E0,-1.430304E0,5.20215E0,1.3541755E1,2.3241486E1,3.8178265E1,-2.1063036E1,-1.7468653E1,-1.5898487E1,-1.1899136E1,-1.0728282E1,-6.7200623E0,-4.1565228E0,5.3096235E-1,2.2665482E0,7.877003E0,1.1019838E1,1.7449957E1,1.759281E1,2.5940609E1,3.3389515E1,4.6528175E1,-2.260853E0,-2.0077426E0,-1.9433237E0,-1.6703888E0,-1.8038462E0,-1.5155166E0,-1.3572664E0,-1.0293331E0,-1.3419892E0,-1.0027645E0,-9.4059414E-1,-5.860741E-1,-3.521486E-1,-7.899163E-1,-2.764703E-1,1.6645293E-1,-4.5780648E-2,3.6420935E-1,4.7661573E-1,9.64094E-1,8.3506745E-1,1.3098806E0,1.5334775E0,2.0594199E0,1.846242E0,7.666018E-1,2.3580673E0,2.987492E0,2.893705E0,3.6983116E0,4.304606E0,5.5829473E0],"categories":[],"categories_nodes":[],"categories_segments":[],"categories_sizes":[],"default_left":[0,0,0,0,0,0,0,0,0,0,0,0,0,0,0,0,0,0,0,0,0,0,0,0,0,0,0,0,0,0,0,0,0,0,0,0,0,0,0,0,0,0,0,0,0,0,0,0,0,0,0,0,0,0,0,0,0,0,0,0,0,0,0],"id":5,"left_children":[1,3,5,7,9,11,13,15,17,19,21,23,25,27,29,31,33,35,37,39,41,43,45,47,49,51,53,55,57,59,61,-1,-1,-1,-1,-1,-1,-1,-1,-1,-1,-1,-1,-1,-1,-1,-1,-1,-1,-1,-1,-1,-1,-1,-1,-1,-1,-1,-1,-1,-1,-1,-1],"loss_changes":[1.1507307E8,1.3939116E7,2.4557376E7,1.814684E6,2.339728E6,3.301789E6,4.88772E6,3.23892E5,4.24764E5,3.61433E5,5.94881E5,8.41859E5,8.39602E5,9.60256E5,1.341644E6,6.8528E4,8.4268E4,6.4608E4,2.04642E5,6.466475E4,1.50408E5,1.10610625E5,2.4174447E5,1.9156125E5,3.0778275E5,2.872785E5,2.21922E5,1.75761E5,3.95156E5,3.40572E5,3.9406E5,0E0,0E0,0E0,0E0,0E0,0E0,0E0,0E0,0E0,0E0,0E0,0E0,0E0,0E0,0E0,0E0,0E0,0E0,0E0,0E0,0E0,0E0,0E0,0E0,0E0,0E0,0E0,0E0,0E0,0E0,0E0,0E0],"parents":[2147483647,0,0,1,1,2,2,3,3,4,4,5,5,6,6,7,7,8,8,9,9,10,10,11,11,12,12,13,13,14,14,15,15,16,16,17,17,18,18,19,19,20,20,21,21,22,22,23,23,24,24,25,25,26,26,27,27,28,28,29,29,30,30],"right_children":[2,4,6,8,10,12,14,16,18,20,22,24,26,28,30,32,34,36,38,40,42,44,46,48,50,52,54,56,58,60,62,-1,-1,-1,-1,-1,-1,-1,-1,-1,-1,-1,-1,-1,-1,-1,-1,-1,-1,-1,-1,-1,-1,-1,-1,-1,-1,-1,-1,-1,-1,-1,-1],"split_conditions":[5.4E1,3.3E1,8.4E1,2.3E1,4.2E1,6.8E1,1.05E2,1.8E1,2.5E1,3.3E1,4.5E1,5.9E1,7.7E1,7.9E1,1.21E2,1.5E1,1.8E1,1.8E1,3.1E1,2.4E1,3.2E1,1.2E1,1E0,4.9E1,5.8E1,6.5E1,8E1,1.2E1,1E2,9.9E1,1.31E2,-2.260853E0,-2.0077426E0,-1.9433237E0,-1.6703888E0,-1.8038462E0,-1.5155166E0,-1.3572664E0,-1.0293331E0,-1.3419892E0,-1.0027645E0,-9.4059414E-1,-5.860741E-1,-3.521486E-1,-7.899163E-1,-2.764703E-1,1.6645293E-1,-4.5780648E-2,3.6420935E-1,4.7661573E-1,9.64094E-1,8.3506745E-1,1.3098806E0,1.5334775E0,2.0594199E0,1.846242E0,7.666018E-1,2.3580673E0,2.987492E0,2.893705E0,3.6983116E0,4.304606E0,5.5829473E0],"split_indices":[12,12,12,13,13,12,13,12,11,11,11,13,13,11,12,11,11,11,13,11,13,3,5,11,11,11,11,3,12,11,11,0,0,0,0,0,0,0,0,0,0,0,0,0,0,0,0,0,0,0,0,0,0,0,0,0,0,0,0,0,0,0,0],"split_type":[0,0,0,0,0,0,0,0,0,0,0,0,0,0,0,0,0,0,0,0,0,0,0,0,0,0,0,0,0,0,0,0,0,0,0,0,0,0,0,0,0,0,0,0,0,0,0,0,0,0,0,0,0,0,0,0,0,0,0,0,0,0,0],"sum_hessian":[7.184E5,4.29381E5,2.89019E5,2.18574E5,2.10807E5,1.92417E5,9.6602E4,1.01586E5,1.16988E5,9.955E4,1.11257E5,1.07213E5,8.5204E4,6.3011E4,3.3591E4,4.5284E4,5.6302E4,4.0787E4,7.6201E4,3.436E4,6.519E4,4.655E4,6.4707E4,5.1116E4,5.6097E4,5.1789E4,3.3415E4,2.0376E4,4.2635E4,2.1351E4,1.224E4,1.7625E4,2.7659E4,1.5769E4,4.0533E4,1.0509E4,3.0278E4,3.731E4,3.8891E4,7.093E3,2.7267E4,1.5799E4,4.9391E4,3.9799E4,6.751E3,1.656E4,4.8147E4,1.715E4,3.3966E4,2.03E4,3.5797E4,2.2678E4,2.9111E4,1.998E4,1.3435E4,1.8734E4,1.642E3,2.6654E4,1.5981E4,9.54E3,1.1811E4,8.91E3,3.33E3],"tree_param":{"num_deleted":"0","num_feature":"17","num_nodes":"63","size_leaf_vector":"1"}},{"base_weights":[1.5354634E-4,-8.669157E0,1.5015514E1,-1.38895E1,-2.8493114E0,9.07329E0,2.603751E1,-1.712699E1,-1.1376627E1,-5.621978E0,8.646664E-1,5.1728387E0,1.2866594E1,2.220882E1,3.668641E1,-1.898262E1,-1.5693784E1,-1.3207365E1,-9.2445545E0,-7.9601064E0,-3.7368848E0,-1.5906887E0,2.627647E0,2.215536E0,7.233708E0,1.01963005E1,1.5623625E1,1.8290524E1,2.5918518E1,3.2780933E1,4.4627563E1,-2.081882E0,-1.820365E0,-1.7436327E0,-1.4838176E0,-1.4643682E0,-1.2072128E0,-1.0863278E0,-7.880222E-1,-1.0530275E0,-7.221636E-1,-5.6827825E-1,-2.377278E-1,-1.1213096E-1,-6.097144E-1,-8.9874476E-2,3.7414166E-1,3.2623777E-1,-2.832151E-1,3.0589625E-1,8.3197874E-1,1.0847017E0,3.4051794E-1,1.0125512E0,1.691863E0,1.4711328E0,2.049933E0,2.295861E0,2.9605603E0,2.885919E0,3.6452255E0,4.196241E0,5.5693107E0],"categories":[],"categories_nodes":[],"categories_segments":[],"categories_sizes":[],"default_left":[0,0,0,0,0,0,0,0,0,0,0,0,0,0,0,0,0,0,0,0,0,0,0,0,0,0,0,0,0,0,0,0,0,0,0,0,0,0,0,0,0,0,0,0,0,0,0,0,0,0,0,0,0,0,0,0,0,0,0,0,0,0,0],"id":6,"left_children":[1,3,5,7,9,11,13,15,17,19,21,23,25,27,29,31,33,35,37,39,41,43,45,47,49,51,53,55,57,59,61,-1,-1,-1,-1,-1,-1,-1,-1,-1,-1,-1,-1,-1,-1,-1,-1,-1,-1,-1,-1,-1,-1,-1,-1,-1,-1,-1,-1,-1,-1,-1,-1],"loss_changes":[9.351642E7,1.38371E7,1.7222176E7,1.95302E6,2.21768E6,2.527762E6,3.754548E6,2.78722E5,5.27498E5,5.4344775E5,3.984823E5,5.13376E5,6.375E5,9.84348E5,7.53946E5,6.501E4,8.8006E4,1.18404E5,1.37836E5,1.0438575E5,1.8060006E5,8.137263E4,2.1045138E5,1.8281889E5,2.250565E5,1.94411E5,3.03236E5,2.60216E5,3.79106E5,2.3408E5,2.3439E5,0E0,0E0,0E0,0E0,0E0,0E0,0E0,0E0,0E0,0E0,0E0,0E0,0E0,0E0,0E0,0E0,0E0,0E0,0E0,0E0,0E0,0E0,0E0,0E0,0E0,0E0,0E0,0E0,0E0,0E0,0E0,0E0],"parents":[2147483647,0,0,1,1,2,2,3,3,4,4,5,5,6,6,7,7,8,8,9,9,10,10,11,11,12,12,13,13,14,14,15,15,16,16,17,17,18,18,19,19,20,20,21,21,22,22,23,23,24,24,25,25,26,26,27,27,28,28,29,29,30,30],"right_children":[2,4,6,8,10,12,14,16,18,20,22,24,26,28,30,32,34,36,38,40,42,44,46,48,50,52,54,56,58,60,62,-1,-1,-1,-1,-1,-1,-1,-1,-1,-1,-1,-1,-1,-1,-1,-1,-1,-1,-1,-1,-1,-1,-1,-1,-1,-1,-1,-1,-1,-1,-1,-1],"split_conditions":[5.7E1,3.5E1,8.5E1,2.3E1,4.8E1,6.7E1,1.11E2,1.8E1,3E1,3.9E1,4.9E1,5.6E1,7.2E1,9.1E1,1.27E2,1.3E1,1.9E1,2.5E1,3.2E1,2.9E1,4.1E1,1.2E1,1E0,1.2E1,1E0,1.2E1,1E0,7.8E1,9.6E1,1.05E2,1.4E2,-2.081882E0,-1.820365E0,-1.7436327E0,-1.4838176E0,-1.4643682E0,-1.2072128E0,-1.0863278E0,-7.880222E-1,-1.0530275E0,-7.221636E-1,-5.6827825E-1,-2.377278E-1,-1.1213096E-1,-6.097144E-1,-8.9874476E-2,3.7414166E-1,3.2623777E-1,-2.832151E-1,3.0589625E-1,8.3197874E-1,1.0847017E0,3.4051794E-1,1.0125512E0,1.691863E0,1.4711328E0,2.049933E0,2.295861E0,2.9605603E0,2.885919E0,3.6452255E0,4.196241E0,5.5693107E0],"split_indices":[13,12,12,12,12,12,13,13,13,13,11,11,11,13,12,12,11,11,11,13,11,3,5,3,5,3,5,11,11,11,11,0,0,0,0,0,0,0,0,0,0,0,0,0,0,0,0,0,0,0,0,0,0,0,0,0,0,0,0,0,0,0,0],"split_type":[0,0,0,0,0,0,0,0,0,0,0,0,0,0,0,0,0,0,0,0,0,0,0,0,0,0,0,0,0,0,0,0,0,0,0,0,0,0,0,0,0,0,0,0,0,0,0,0,0,0,0,0,0,0,0,0,0,0,0,0,0,0,0],"sum_hessian":[7.184E5,4.55444E5,2.62956E5,2.40087E5,2.15357E5,1.70849E5,9.2107E4,1.04914E5,1.35173E5,1.23304E5,9.2053E4,8.4236E4,8.6613E4,6.7751E4,2.4356E4,4.5714E4,5.92E4,7.2723E4,6.245E4,5.5037E4,6.8267E4,3.8472E4,5.3581E4,3.4595E4,4.9641E4,4.4001E4,4.2612E4,3.2952E4,3.4799E4,1.633E4,8.026E3,1.3609E4,3.2105E4,1.9489E4,3.9711E4,3.2099E4,4.0624E4,2.8559E4,3.3891E4,1.2281E4,4.2756E4,2.8078E4,4.0189E4,3.4844E4,3.628E3,1.2861E4,4.072E4,2.8653E4,5.942E3,1.0249E4,3.9392E4,4.0153E4,3.848E3,8.125E3,3.4487E4,1.2578E4,2.0374E4,1.9307E4,1.5492E4,7.9E3,8.43E3,6.472E3,1.554E3],"tree_param":{"num_deleted":"0","num_feature":"17","num_nodes":"63","size_leaf_vector":"1"}},{"base_weights":[1.6002661E-4,-6.923666E0,1.5265849E1,-1.1626186E1,-5.6268597E-1,1.1064079E1,2.7184063E1,-1.430006E1,-8.261129E0,-3.3058562E0,2.4397972E0,7.9292593E0,1.5580647E1,2.3853262E1,3.621063E1,-1.604155E1,-1.2299596E1,-1.0215668E1,-6.678726E0,-5.316704E0,-1.6843853E0,2.2586398E-1,4.2969418E0,5.1555777E0,9.987622E0,1.292057E1,1.840595E1,2.0472603E1,2.7478003E1,3.278166E1,4.3362686E1,-1.8229992E0,-1.5304906E0,-1.3503188E0,-1.1236738E0,-1.2153445E0,-9.4962865E-1,-9.0680534E-1,-5.742936E-1,-6.7014754E-1,-4.048643E-1,-4.391801E-1,-6.488509E-2,8.730397E-2,-3.73231E-1,7.970845E-2,5.4129905E-1,5.7412004E-1,-9.492134E-2,5.517338E-1,1.1036327E0,1.3705974E0,5.7509017E-1,1.2256655E0,1.9543825E0,2.1186204E0,6.9536364E-1,1.6363024E0,2.8347142E0,3.3408089E0,1.1500791E0,4.026096E0,5.0349536E0],"categories":[],"categories_nodes":[],"categories_segments":[],"categories_sizes":[],"default_left":[0,0,0,0,0,0,0,0,0,0,0,0,0,0,0,0,0,0,0,0,0,0,0,0,0,0,0,0,0,0,0,0,0,0,0,0,0,0,0,0,0,0,0,0,0,0,0,0,0,0,0,0,0,0,0,0,0,0,0,0,0,0,0],"id":7,"left_children":[1,3,5,7,9,11,13,15,17,19,21,23,25,27,29,31,33,35,37,39,41,43,45,47,49,51,53,55,57,59,61,-1,-1,-1,-1,-1,-1,-1,-1,-1,-1,-1,-1,-1,-1,-1,-1,-1,-1,-1,-1,-1,-1,-1,-1,-1,-1,-1,-1,-1,-1,-1,-1],"loss_changes":[7.593292E7,1.4783954E7,1.1225292E7,2.556708E6,1.730262E6,2.346472E6,1.755844E6,5.51432E5,3.89082E5,3.5792875E5,4.1238362E5,5.58512E5,5.10082E5,5.22474E5,3.84762E5,1.36182E5,9.4124E4,7.8353E4,1.554175E5,8.60245E4,1.7038728E5,1.1721081E5,2.1304512E5,1.4900862E5,2.632085E5,1.9688E5,2.30147E5,2.12949E5,1.98493E5,1.41564E5,1.08497E5,0E0,0E0,0E0,0E0,0E0,0E0,0E0,0E0,0E0,0E0,0E0,0E0,0E0,0E0,0E0,0E0,0E0,0E0,0E0,0E0,0E0,0E0,0E0,0E0,0E0,0E0,0E0,0E0,0E0,0E0,0E0,0E0],"parents":[2147483647,0,0,1,1,2,2,3,3,4,4,5,5,6,6,7,7,8,8,9,9,10,10,11,11,12,12,13,13,14,14,15,15,16,16,17,17,18,18,19,19,20,20,21,21,22,22,23,23,24,24,25,25,26,26,27,27,28,28,29,29,30,30],"right_children":[2,4,6,8,10,12,14,16,18,20,22,24,26,28,30,32,34,36,38,40,42,44,46,48,50,52,54,56,58,60,62,-1,-1,-1,-1,-1,-1,-1,-1,-1,-1,-1,-1,-1,-1,-1,-1,-1,-1,-1,-1,-1,-1,-1,-1,-1,-1,-1,-1,-1,-1,-1,-1],"split_conditions":[6.2E1,3.9E1,9.5E1,2.8E1,5E1,7.7E1,1.18E2,2.2E1,3.2E1,4.2E1,5.3E1,6.3E1,8E1,9.6E1,1.25E2,1.4E1,2.5E1,2.3E1,1E0,3.9E1,1E0,1.2E1,1E0,1.2E1,1E0,1.2E1,1E0,1.2E1,1E0,1.2E1,1.46E2,-1.8229992E0,-1.5304906E0,-1.3503188E0,-1.1236738E0,-1.2153445E0,-9.4962865E-1,-9.0680534E-1,-5.742936E-1,-6.7014754E-1,-4.048643E-1,-4.391801E-1,-6.488509E-2,8.730397E-2,-3.73231E-1,7.970845E-2,5.4129905E-1,5.7412004E-1,-9.492134E-2,5.517338E-1,1.1036327E0,1.3705974E0,5.7509017E-1,1.2256655E0,1.9543825E0,2.1186204E0,6.9536364E-1,1.6363024E0,2.8347142E0,3.3408089E0,1.1500791E0,4.026096E0,5.0349536E0],"split_indices":[12,12,12,13,13,13,13,12,11,11,11,11,11,11,11,13,11,11,5,13,5,3,5,3,5,3,5,3,5,3,13,0,0,0,0,0,0,0,0,0,0,0,0,0,0,0,0,0,0,0,0,0,0,0,0,0,0,0,0,0,0,0,0],"split_type":[0,0,0,0,0,0,0,0,0,0,0,0,0,0,0,0,0,0,0,0,0,0,0,0,0,0,0,0,0,0,0,0,0,0,0,0,0,0,0,0,0,0,0,0,0,0,0,0,0,0,0,0,0,0,0,0,0,0,0,0,0,0,0],"sum_hessian":[7.184E5,4.94237E5,2.24163E5,2.84162E5,2.10075E5,1.65735E5,5.8428E4,1.58341E5,1.25821E5,1.09778E5,1.00297E5,9.7834E4,6.7901E4,4.2682E4,1.5746E4,8.4646E4,7.3695E4,5.6289E4,6.9532E4,4.9004E4,6.0774E4,4.5754E4,5.4543E4,4.1677E4,5.6157E4,3.4976E4,3.2925E4,2.2088E4,2.0594E4,1.0647E4,5.099E3,2.1311E4,6.3335E4,3.4554E4,3.9141E4,1.5235E4,4.1054E4,1.9566E4,4.9966E4,2.3422E4,2.5582E4,1.6813E4,4.3961E4,3.9325E4,6.429E3,1.3188E4,4.1355E4,3.8029E4,3.648E3,1.0672E4,4.5485E4,3.1522E4,3.454E3,5.143E3,2.7782E4,2.098E4,1.108E3,1.495E3,1.9099E4,1.0342E4,3.05E2,3.536E3,1.563E3],"tree_param":{"num_deleted":"0","num_feature":"17","num_nodes":"63","size_leaf_vector":"1"}},{"base_weights":[1.68151E-4,-6.712341E0,1.2836386E1,-1.0689537E1,-1.2679393E0,8.570792E0,2.2848166E1,-1.32328005E1,-8.0492525E0,-3.398129E0,1.7552774E0,5.3590145E0,1.2329922E1,1.9953524E1,3.230013E1,-1.5186435E1,-1.1994376E1,-9.523958E0,-6.280992E0,-5.5509143E0,-2.0919564E0,-1.3811234E-1,3.2616985E0,2.876181E0,7.1827216E0,9.965299E0,1.4663114E1,1.6328005E1,2.3095907E1,2.898755E1,3.799439E1,-1.652236E0,-1.425179E0,-1.2796689E0,-1.0101129E0,-1.0728961E0,-8.4684706E-1,-7.4060816E-1,-4.7281966E-1,-7.478424E-1,-4.8940665E-1,-4.1204938E-1,-1.22775376E-1,-3.1226352E-1,4.667088E-2,1.9627873E-2,4.230897E-1,3.76285E-1,-2.0284574E-1,3.6592773E-1,8.0761254E-1,1.0517248E0,2.921711E-1,9.690642E-1,1.5664347E0,1.7395871E0,7.738554E-1,1.4513091E0,2.3847814E0,2.9618528E0,6.53758E-1,3.5533643E0,4.5000954E0],"categories":[],"categories_nodes":[],"categories_segments":[],"categories_sizes":[],"default_left":[0,0,0,0,0,0,0,0,0,0,0,0,0,0,0,0,0,0,0,0,0,0,0,0,0,0,0,0,0,0,0,0,0,0,0,0,0,0,0,0,0,0,0,0,0,0,0,0,0,0,0,0,0,0,0,0,0,0,0,0,0,0,0],"id":8,"left_children":[1,3,5,7,9,11,13,15,17,19,21,23,25,27,29,31,33,35,37,39,41,43,45,47,49,51,53,55,57,59,61,-1,-1,-1,-1,-1,-1,-1,-1,-1,-1,-1,-1,-1,-1,-1,-1,-1,-1,-1,-1,-1,-1,-1,-1,-1,-1,-1,-1,-1,-1,-1,-1],"loss_changes":[6.1899836E7,1.0214396E7,1.0534564E7,1.830326E6,1.282421E6,2.08843E6,2.015764E6,3.35742E5,3.48707E5,3.2847562E5,2.3477705E5,4.2236575E5,4.39563E5,6.42438E5,3.2479E5,6.702E4,1.28956E5,9.26595E4,1.062245E5,5.5814E4,1.2745697E5,6.583896E4,1.3619272E5,1.7180656E5,1.69262E5,1.5386775E5,1.9956E5,2.401905E5,1.94697E5,1.54591E5,1.07901E5,0E0,0E0,0E0,0E0,0E0,0E0,0E0,0E0,0E0,0E0,0E0,0E0,0E0,0E0,0E0,0E0,0E0,0E0,0E0,0E0,0E0,0E0,0E0,0E0,0E0,0E0,0E0,0E0,0E0,0E0,0E0,0E0],"parents":[2147483647,0,0,1,1,2,2,3,3,4,4,5,5,6,6,7,7,8,8,9,9,10,10,11,11,12,12,13,13,14,14,15,15,16,16,17,17,18,18,19,19,20,20,21,21,22,22,23,23,24,24,25,25,26,26,27,27,28,28,29,29,30,30],"right_children":[2,4,6,8,10,12,14,16,18,20,22,24,26,28,30,32,34,36,38,40,42,44,46,48,50,52,54,56,58,60,62,-1,-1,-1,-1,-1,-1,-1,-1,-1,-1,-1,-1,-1,-1,-1,-1,-1,-1,-1,-1,-1,-1,-1,-1,-1,-1,-1,-1,-1,-1,-1,-1],"split_conditions":[5.9E1,3.8E1,9E1,2.6E1,5.1E1,7.2E1,1.17E2,1.8E1,3.3E1,4E1,5.2E1,5.9E1,7.6E1,9E1,1.22E2,1.6E1,2.7E1,2.8E1,3.8E1,3.2E1,4E1,3.8E1,1E0,1.2E1,1E0,1.2E1,1E0,1.2E1,1E0,1.2E1,1.46E2,-1.652236E0,-1.425179E0,-1.2796689E0,-1.0101129E0,-1.0728961E0,-8.4684706E-1,-7.4060816E-1,-4.7281966E-1,-7.478424E-1,-4.8940665E-1,-4.1204938E-1,-1.22775376E-1,-3.1226352E-1,4.667088E-2,1.9627873E-2,4.230897E-1,3.76285E-1,-2.0284574E-1,3.6592773E-1,8.0761254E-1,1.0517248E0,2.921711E-1,9.690642E-1,1.5664347E0,1.7395871E0,7.738554E-1,1.4513091E0,2.3847814E0,2.9618528E0,6.53758E-1,3.5533643E0,4.5000954E0],"split_indices":[13,12,13,12,12,12,12,12,13,13,11,11,11,11,11,11,13,11,11,11,11,11,5,3,5,3,5,3,5,3,13,0,0,0,0,0,0,0,0,0,0,0,0,0,0,0,0,0,0,0,0,0,0,0,0,0,0,0,0,0,0,0,0],"split_type":[0,0,0,0,0,0,0,0,0,0,0,0,0,0,0,0,0,0,0,0,0,0,0,0,0,0,0,0,0,0,0,0,0,0,0,0,0,0,0,0,0,0,0,0,0,0,0,0,0,0,0,0,0,0,0,0,0,0,0,0,0,0,0],"sum_hessian":[7.184E5,4.71721E5,2.46679E5,2.7259E5,1.99131E5,1.72981E5,7.3698E4,1.38844E5,1.33746E5,1.16819E5,8.2312E4,9.3283E4,7.9698E4,5.6422E4,1.7276E4,5.3863E4,8.4981E4,7.2924E4,6.0822E4,4.4112E4,7.2707E4,3.6472E4,4.584E4,3.9504E4,5.3779E4,3.9585E4,4.0113E4,2.62E4,3.0222E4,1.0926E4,6.35E3,2.2165E4,3.1698E4,5.9683E4,2.5298E4,3.4046E4,3.8878E4,3.5266E4,2.5556E4,1.1209E4,3.2903E4,2.172E4,5.0987E4,6.145E3,3.0327E4,1.1012E4,3.4828E4,3.3456E4,6.048E3,1.0879E4,4.29E4,3.6708E4,2.877E3,6.725E3,3.3388E4,2.3302E4,2.898E3,2.436E3,2.7786E4,1.0627E4,2.99E2,4.704E3,1.646E3],"tree_param":{"num_deleted":"0","num_feature":"17","num_nodes":"63","size_leaf_vector":"1"}},{"base_weights":[1.6974196E-4,-7.035426E0,9.939501E0,-1.097196E1,-3.5954633E0,5.2167363E0,1.806262E1,-1.2901704E1,-9.338325E0,-5.8703694E0,-1.4068592E0,2.5516164E0,7.885115E0,1.4638774E1,2.5295311E1,-1.4203898E1,-1.187516E1,-1.0749424E1,-8.38266E0,-7.5635138E0,-4.916762E0,-3.3562846E0,-1.8914029E-1,3.8464636E-1,3.786551E0,5.2802544E0,9.427261E0,1.171861E1,1.7037344E1,2.128536E1,3.000467E1,-1.5485317E0,-1.3497715E0,-1.3531238E0,-1.0976804E0,-1.0320544E0,-1.3041922E0,-1.0364078E0,-7.635828E-1,-7.2268957E-1,-1.0547384E0,-6.9710976E-1,-4.234701E-1,-2.8164437E-1,-6.393542E-1,-2.4771456E-1,5.5036068E-2,-1.4643309E-1,1.1820568E-1,5.0813E-1,2.2002962E-1,5.966222E-1,6.7112245E-2,8.3760864E-1,1.1622633E0,7.668476E-1,1.2502741E0,1.5190446E0,1.9564018E0,2.1928594E0,5.495452E-1,2.7465684E0,3.5905209E0],"categories":[],"categories_nodes":[],"categories_segments":[],"categories_sizes":[],"default_left":[0,0,0,0,0,0,0,0,0,0,0,0,0,0,0,0,0,0,0,0,0,0,0,0,0,0,0,0,0,0,0,0,0,0,0,0,0,0,0,0,0,0,0,0,0,0,0,0,0,0,0,0,0,0,0,0,0,0,0,0,0,0,0],"id":9,"left_children":[1,3,5,7,9,11,13,15,17,19,21,23,25,27,29,31,33,35,37,39,41,43,45,47,49,51,53,55,57,59,61,-1,-1,-1,-1,-1,-1,-1,-1,-1,-1,-1,-1,-1,-1,-1,-1,-1,-1,-1,-1,-1,-1,-1,-1,-1,-1,-1,-1,-1,-1,-1,-1],"loss_changes":[5.0237216E7,5.69615E6,1.1422888E7,6.18286E5,1.117663E6,1.3389995E6,2.71048E6,1.20045E5,1.43173E5,1.7768325E5,2.715989E5,2.5209206E5,3.77901E5,5.20214E5,6.63522E5,3.56595E4,7.46745E4,4.2038E4,9.3657E4,3.975525E4,9.8636E4,7.210959E4,1.19157516E5,5.0423047E4,1.2322919E5,1.106245E5,1.36282E5,1.063265E5,1.90054E5,1.92845E5,2.41292E5,0E0,0E0,0E0,0E0,0E0,0E0,0E0,0E0,0E0,0E0,0E0,0E0,0E0,0E0,0E0,0E0,0E0,0E0,0E0,0E0,0E0,0E0,0E0,0E0,0E0,0E0,0E0,0E0,0E0,0E0,0E0,0E0],"parents":[2147483647,0,0,1,1,2,2,3,3,4,4,5,5,6,6,7,7,8,8,9,9,10,10,11,11,12,12,13,13,14,14,15,15,16,16,17,17,18,18,19,19,20,20,21,21,22,22,23,23,24,24,25,25,26,26,27,27,28,28,29,29,30,30],"right_children":[2,4,6,8,10,12,14,16,18,20,22,24,26,28,30,32,34,36,38,40,42,44,46,48,50,52,54,56,58,60,62,-1,-1,-1,-1,-1,-1,-1,-1,-1,-1,-1,-1,-1,-1,-1,-1,-1,-1,-1,-1,-1,-1,-1,-1,-1,-1,-1,-1,-1,-1,-1,-1],"split_conditions":[5.3E1,3.1E1,8.1E1,2.2E1,4.1E1,6.4E1,1.05E2,1.8E1,2.5E1,3.2E1,4.3E1,5.2E1,6.4E1,8.6E1,1.09E2,1.4E1,1E0,1.2E1,1E0,1.2E1,1E0,1.2E1,1E0,4.4E1,3E1,1.2E1,8.1E1,6.5E1,9.2E1,1.2E1,1.33E2,-1.5485317E0,-1.3497715E0,-1.3531238E0,-1.0976804E0,-1.0320544E0,-1.3041922E0,-1.0364078E0,-7.635828E-1,-7.2268957E-1,-1.0547384E0,-6.9710976E-1,-4.234701E-1,-2.8164437E-1,-6.393542E-1,-2.4771456E-1,5.5036068E-2,-1.4643309E-1,1.1820568E-1,5.0813E-1,2.2002962E-1,5.966222E-1,6.7112245E-2,8.3760864E-1,1.1622633E0,7.668476E-1,1.2502741E0,1.5190446E0,1.9564018E0,2.1928594E0,5.495452E-1,2.7465684E0,3.5905209E0],"split_indices":[12,12,12,13,13,13,12,11,11,11,11,13,11,13,11,12,5,3,5,3,5,3,5,13,6,3,13,11,11,3,13,0,0,0,0,0,0,0,0,0,0,0,0,0,0,0,0,0,0,0,0,0,0,0,0,0,0,0,0,0,0,0,0],"split_type":[0,0,0,0,0,0,0,0,0,0,0,0,0,0,0,0,0,0,0,0,0,0,0,0,0,0,0,0,0,0,0,0,0,0,0,0,0,0,0,0,0,0,0,0,0,0,0,0,0,0,0,0,0,0,0,0,0,0,0,0,0,0,0],"sum_hessian":[7.184E5,4.20645E5,2.97755E5,1.96163E5,2.24482E5,1.88287E5,1.09468E5,8.9928E4,1.06235E5,1.1007E5,1.14412E5,9.4202E4,9.4085E4,7.4299E4,3.5169E4,3.9636E4,5.0292E4,4.2892E4,6.3343E4,3.9655E4,7.0415E4,4.3989E4,7.0423E4,3.4197E4,6.0005E4,3.4989E4,5.9096E4,3.3509E4,4.079E4,1.8998E4,1.6171E4,1.4075E4,2.5561E4,1.7682E4,3.261E4,3.6137E4,6.755E3,1.7336E4,4.6007E4,3.5638E4,4.017E3,1.7549E4,5.2866E4,3.7352E4,6.637E3,1.7201E4,5.3222E4,1.0304E4,2.3893E4,3.3037E4,2.6968E4,3.0456E4,4.533E3,3.9965E4,1.9131E4,5.437E3,2.8072E4,2.3569E4,1.7221E4,1.8254E4,7.44E2,1.131E4,4.861E3],"tree_param":{"num_deleted":"0","num_feature":"17","num_nodes":"63","size_leaf_vector":"1"}},{"base_weights":[1.593948E-4,-6.0223694E0,9.44899E0,-9.703085E0,-2.7315092E0,5.5971103E0,1.7265388E1,-1.1425919E1,-8.078994E0,-4.6529903E0,-3.0159488E-1,3.468288E0,9.003124E0,1.3746444E1,2.2938423E1,-1.3118374E1,-1.0703032E1,-9.552678E0,-7.2965403E0,-6.172168E0,-3.4425046E0,-2.089298E0,8.558349E-1,1.4299545E0,5.031214E0,6.5104933E0,1.0296304E1,1.0896702E1,1.5783876E1,2.0928091E1,3.037029E1,-1.4573416E0,-1.2596537E0,-1.170513E0,-9.8861086E-1,-1.1163772E0,-9.0654725E-1,-7.630637E-1,-4.748663E-1,-7.7186334E-1,-5.499733E-1,-5.4767483E-1,-2.6455322E-1,-1.716501E-1,-5.5024356E-1,-1.4787194E-1,1.5862195E-1,2.1287131E-1,-2.6140723E-1,2.0695281E-1,5.838219E-1,7.0947236E-1,6.1659522E-2,1.1674122E0,8.645585E-1,1.1830958E0,4.823402E-1,1.0227772E0,1.6409107E0,1.8170264E0,2.3548698E0,2.840111E0,3.8230748E0],"categories":[],"categories_nodes":[],"categories_segments":[],"categories_sizes":[],"default_left":[0,0,0,0,0,0,0,0,0,0,0,0,0,0,0,0,0,0,0,0,0,0,0,0,0,0,0,0,0,0,0,0,0,0,0,0,0,0,0,0,0,0,0,0,0,0,0,0,0,0,0,0,0,0,0,0,0,0,0,0,0,0,0],"id":10,"left_children":[1,3,5,7,9,11,13,15,17,19,21,23,25,27,29,31,33,35,37,39,41,43,45,47,49,51,53,55,57,59,61,-1,-1,-1,-1,-1,-1,-1,-1,-1,-1,-1,-1,-1,-1,-1,-1,-1,-1,-1,-1,-1,-1,-1,-1,-1,-1,-1,-1,-1,-1,-1,-1],"loss_changes":[4.088128E7,5.314431E6,8.419616E6,5.794E5,1.0815528E6,1.3583045E6,1.842618E6,1.22812E5,1.228635E5,2.37855E5,2.1165422E5,3.672605E5,2.3219E5,3.30652E5,5.27362E5,2.26505E4,5.7536E4,2.891875E4,5.924575E4,5.960825E4,1.1670475E5,5.114133E4,1.0587511E5,1.4139153E5,1.5594388E5,8.475469E4,1.07794E5,1.3474075E5,1.152405E5,2.00626E5,1.15345E5,0E0,0E0,0E0,0E0,0E0,0E0,0E0,0E0,0E0,0E0,0E0,0E0,0E0,0E0,0E0,0E0,0E0,0E0,0E0,0E0,0E0,0E0,0E0,0E0,0E0,0E0,0E0,0E0,0E0,0E0,0E0,0E0],"parents":[2147483647,0,0,1,1,2,2,3,3,4,4,5,5,6,6,7,7,8,8,9,9,10,10,11,11,12,12,13,13,14,14,15,15,16,16,17,17,18,18,19,19,20,20,21,21,22,22,23,23,24,24,25,25,26,26,27,27,28,28,29,29,30,30],"right_children":[2,4,6,8,10,12,14,16,18,20,22,24,26,28,30,32,34,36,38,40,42,44,46,48,50,52,54,56,58,60,62,-1,-1,-1,-1,-1,-1,-1,-1,-1,-1,-1,-1,-1,-1,-1,-1,-1,-1,-1,-1,-1,-1,-1,-1,-1,-1,-1,-1,-1,-1,-1,-1],"split_conditions":[5.5E1,3.2E1,8.5E1,2.3E1,4.5E1,7.1E1,1.04E2,1.5E1,2.4E1,3.6E1,4.6E1,5.7E1,6.8E1,8.2E1,1.3E2,1.2E1,2E1,1.8E1,4E1,2.7E1,1E0,1.2E1,1E0,1.2E1,1E0,1.2E1,2.9E1,1.2E1,1E0,1.03E2,1.4E2,-1.4573416E0,-1.2596537E0,-1.170513E0,-9.8861086E-1,-1.1163772E0,-9.0654725E-1,-7.630637E-1,-4.748663E-1,-7.7186334E-1,-5.499733E-1,-5.4767483E-1,-2.6455322E-1,-1.716501E-1,-5.5024356E-1,-1.4787194E-1,1.5862195E-1,2.1287131E-1,-2.6140723E-1,2.0695281E-1,5.838219E-1,7.0947236E-1,6.1659522E-2,1.1674122E0,8.645585E-1,1.1830958E0,4.823402E-1,1.0227772E0,1.6409107E0,1.8170264E0,2.3548698E0,2.840111E0,3.8230748E0],"split_indices":[13,12,13,13,12,12,12,13,12,11,11,11,11,11,12,12,11,12,13,11,5,3,5,3,5,3,6,3,5,11,11,0,0,0,0,0,0,0,0,0,0,0,0,0,0,0,0,0,0,0,0,0,0,0,0,0,0,0,0,0,0,0,0],"split_type":[0,0,0,0,0,0,0,0,0,0,0,0,0,0,0,0,0,0,0,0,0,0,0,0,0,0,0,0,0,0,0,0,0,0,0,0,0,0,0,0,0,0,0,0,0,0,0,0,0,0,0,0,0,0,0,0,0,0,0,0,0,0,0],"sum_hessian":[7.184E5,4.38749E5,2.79651E5,2.07106E5,2.31643E5,1.87335E5,9.2316E4,1.00495E5,1.06611E5,1.29354E5,1.02289E5,1.15283E5,7.2052E4,5.6977E4,3.5339E4,3.0072E4,7.0423E4,3.697E4,6.9641E4,5.7361E4,7.1993E4,4.0199E4,6.209E4,5.0033E4,6.525E4,2.4614E4,4.7438E4,2.3756E4,3.3221E4,2.7818E4,7.521E3,7.931E3,2.2141E4,3.1621E4,3.8802E4,8.579E3,2.8391E4,6.1566E4,8.075E3,1.738E4,3.9981E4,2.0264E4,5.1729E4,3.6242E4,3.957E3,1.4796E4,4.7294E4,4.2662E4,7.371E3,1.3973E4,5.1277E4,2.2394E4,2.22E3,2.5853E4,2.1585E4,2.0588E4,3.168E3,3.362E3,2.9859E4,1.3558E4,1.426E4,6.018E3,1.503E3],"tree_param":{"num_deleted":"0","num_feature":"17","num_nodes":"63","size_leaf_vector":"1"}},{"base_weights":[1.5451555E-4,-4.473532E0,1.0356159E1,-7.8306437E0,-4.316017E-1,7.41583E0,1.7903553E1,-9.390029E0,-5.425375E0,-2.4329524E0,1.647736E0,5.445768E0,1.0412571E1,1.4592332E1,2.2335667E1,-1.0939534E1,-8.353837E0,-6.8850036E0,-4.680145E0,-3.88165E0,-1.2797172E0,1.517117E-1,3.0488286E0,3.3091679E0,6.5899663E0,8.603458E0,1.2387992E1,1.5273277E1,5.5288076E0,2.0134266E1,2.7800161E1,-1.4161248E0,-1.0650333E0,-1.0101291E0,-7.6233536E-1,-8.648429E-1,-6.567268E-1,-3.8460022E-1,-5.856266E-1,-3.396879E-1,-6.5221393E-1,-3.2591936E-1,-5.365905E-2,-8.216753E-2,1.22917E-1,6.0839813E-2,3.8864014E-1,3.8142177E-1,-1.2561339E-1,3.686658E-1,7.161993E-1,9.042164E-1,2.3140481E-1,7.498991E-1,1.3308862E0,1.3595023E0,1.7566359E0,1.2005907E-1,9.57372E-1,1.106821E0,2.1027257E0,3.0731456E0,2.2935045E0],"categories":[],"categories_nodes":[],"categories_segments":[],"categories_sizes":[],"default_left":[0,0,0,0,0,0,0,0,0,0,0,0,0,0,0,0,0,0,0,0,0,0,0,0,0,0,0,0,0,0,0,0,0,0,0,0,0,0,0,0,0,0,0,0,0,0,0,0,0,0,0,0,0,0,0,0,0,0,0,0,0,0,0],"id":11,"left_children":[1,3,5,7,9,11,13,15,17,19,21,23,25,27,29,31,33,35,37,39,41,43,45,47,49,51,53,55,57,59,61,-1,-1,-1,-1,-1,-1,-1,-1,-1,-1,-1,-1,-1,-1,-1,-1,-1,-1,-1,-1,-1,-1,-1,-1,-1,-1,-1,-1,-1,-1,-1,-1],"loss_changes":[3.3283218E7,6.807412E6,4.8093E6,1.027866E6,9.4726175E5,9.20713E5,8.91358E5,2.66859E5,1.1722275E5,1.9377494E5,2.3400047E5,2.3003125E5,2.209695E5,2.14569E5,3.11967E5,6.19255E4,1.271105E5,2.035625E4,6.99895E4,6.578169E4,9.4997E4,5.66259E4,1.1783225E5,7.568031E4,1.0175025E5,8.908175E4,1.33024E5,1.242525E5,4.2566156E4,1.497275E5,1.056545E5,0E0,0E0,0E0,0E0,0E0,0E0,0E0,0E0,0E0,0E0,0E0,0E0,0E0,0E0,0E0,0E0,0E0,0E0,0E0,0E0,0E0,0E0,0E0,0E0,0E0,0E0,0E0,0E0,0E0,0E0,0E0,0E0],"parents":[2147483647,0,0,1,1,2,2,3,3,4,4,5,5,6,6,7,7,8,8,9,9,10,10,11,11,12,12,13,13,14,14,15,15,16,16,17,17,18,18,19,19,20,20,21,21,22,22,23,23,24,24,25,25,26,26,27,27,28,28,29,29,30,30],"right_children":[2,4,6,8,10,12,14,16,18,20,22,24,26,28,30,32,34,36,38,40,42,44,46,48,50,52,54,56,58,60,62,-1,-1,-1,-1,-1,-1,-1,-1,-1,-1,-1,-1,-1,-1,-1,-1,-1,-1,-1,-1,-1,-1,-1,-1,-1,-1,-1,-1,-1,-1,-1,-1],"split_conditions":[6.3E1,3.8E1,9.4E1,2.9E1,4.9E1,7.9E1,1.03E2,2E1,2.9E1,4.1E1,5.4E1,6.1E1,8.1E1,1.2E1,1.28E2,1E0,1E0,2.1E1,3E1,1.2E1,1E0,5.3E1,1E0,1.2E1,1E0,1.2E1,1E0,1.01E2,8E0,1E0,3.1E1,-1.4161248E0,-1.0650333E0,-1.0101291E0,-7.6233536E-1,-8.648429E-1,-6.567268E-1,-3.8460022E-1,-5.856266E-1,-3.396879E-1,-6.5221393E-1,-3.2591936E-1,-5.365905E-2,-8.216753E-2,1.22917E-1,6.0839813E-2,3.8864014E-1,3.8142177E-1,-1.2561339E-1,3.686658E-1,7.161993E-1,9.042164E-1,2.3140481E-1,7.498991E-1,1.3308862E0,1.3595023E0,1.7566359E0,1.2005907E-1,9.57372E-1,1.106821E0,2.1027257E0,3.0731456E0,2.2935045E0],"split_indices":[12,13,13,12,12,12,11,11,13,11,11,11,11,3,13,5,5,13,6,3,5,13,5,3,5,3,5,12,4,5,6,0,0,0,0,0,0,0,0,0,0,0,0,0,0,0,0,0,0,0,0,0,0,0,0,0,0,0,0,0,0,0,0],"split_type":[0,0,0,0,0,0,0,0,0,0,0,0,0,0,0,0,0,0,0,0,0,0,0,0,0,0,0,0,0,0,0,0,0,0,0,0,0,0,0,0,0,0,0,0,0,0,0,0,0,0,0,0,0,0,0,0,0,0,0,0,0,0,0],"sum_hessian":[7.184E5,5.0168E5,2.1672E5,2.74056E5,2.27624E5,1.55962E5,6.0758E4,1.66262E5,1.07794E5,1.15987E5,1.11637E5,9.4102E4,6.186E4,3.4779E4,2.5979E4,6.6624E4,9.9638E4,3.6431E4,7.1363E4,5.1407E4,6.458E4,5.399E4,5.7647E4,3.282E4,6.1282E4,3.2292E4,2.9568E4,3.2348E4,2.431E3,1.8522E4,7.457E3,5.484E3,6.114E4,2.9369E4,7.0269E4,5.558E3,3.0873E4,4.1754E4,2.9609E4,4.3435E4,7.972E3,1.7626E4,4.6954E4,2.8365E4,2.5625E4,1.473E4,4.2917E4,2.9551E4,3.269E3,1.0088E4,5.1194E4,3.0186E4,2.106E3,4.688E3,2.488E4,1.8682E4,1.3666E4,1.175E3,1.256E3,1.662E3,1.686E4,4.65E3,2.807E3],"tree_param":{"num_deleted":"0","num_feature":"17","num_nodes":"63","size_leaf_vector":"1"}},{"base_weights":[1.5254614E-4,-4.233714E0,8.928165E0,-6.8327055E0,-2.9262787E-1,6.350641E0,1.6104065E1,-8.54325E0,-4.805928E0,-1.7288042E0,1.4667064E0,4.3194456E0,9.033767E0,1.4183366E1,2.24684E1,-9.897555E0,-7.5352006E0,-5.909588E0,-3.6518195E0,-2.5709937E0,-3.6321953E-1,5.0863427E-1,2.9838119E0,2.7220497E0,5.9409337E0,7.7546887E0,1.1085927E1,1.225712E1,1.669359E1,2.5834013E1,1.8637539E1,-1.1372973E0,-9.374259E-1,-8.106009E-1,-6.5229774E-1,-5.538199E-1,-8.254631E-1,-5.37569E-1,-2.8735793E-1,-9.727087E-1,-2.4488954E-1,-2.2098921E-1,7.861957E-2,8.1546925E-2,-3.0426136E-1,4.586309E-2,4.2193118E-1,3.298865E-1,-6.6819094E-2,3.1543848E-1,6.729869E-1,8.10904E-1,2.9774353E-1,6.933607E-1,1.2148033E0,1.271893E0,2.876648E-1,9.069811E-1,1.7370948E0,2.4127433E0,3.304442E0,1.917014E0,6.6361415E-1],"categories":[],"categories_nodes":[],"categories_segments":[],"categories_sizes":[],"default_left":[0,0,0,0,0,0,0,0,0,0,0,0,0,0,0,0,0,0,0,0,0,0,0,0,0,0,0,0,0,0,0,0,0,0,0,0,0,0,0,0,0,0,0,0,0,0,0,0,0,0,0,0,0,0,0,0,0,0,0,0,0,0,0],"id":12,"left_children":[1,3,5,7,9,11,13,15,17,19,21,23,25,27,29,31,33,35,37,39,41,43,45,47,49,51,53,55,57,59,61,-1,-1,-1,-1,-1,-1,-1,-1,-1,-1,-1,-1,-1,-1,-1,-1,-1,-1,-1,-1,-1,-1,-1,-1,-1,-1,-1,-1,-1,-1,-1,-1],"loss_changes":[2.7155608E7,4.991431E6,4.27421E6,1.018029E6,4.8931344E5,9.265835E5,7.46199E5,2.17335E5,1.7117725E5,1.2262072E5,1.26505016E5,2.5063325E5,1.921995E5,2.26644E5,1.82035E5,5.2357E4,5.26985E4,5.978925E4,8.8132E4,5.7597938E4,8.633398E4,5.8132965E4,1.0510306E5,9.533294E4,1.0555075E5,7.6375E4,1.23953E5,1.1497375E5,1.050175E5,9.1897E4,4.2213E4,0E0,0E0,0E0,0E0,0E0,0E0,0E0,0E0,0E0,0E0,0E0,0E0,0E0,0E0,0E0,0E0,0E0,0E0,0E0,0E0,0E0,0E0,0E0,0E0,0E0,0E0,0E0,0E0,0E0,0E0,0E0,0E0],"parents":[2147483647,0,0,1,1,2,2,3,3,4,4,5,5,6,6,7,7,8,8,9,9,10,10,11,11,12,12,13,13,14,14,15,15,16,16,17,17,18,18,19,19,20,20,21,21,22,22,23,23,24,24,25,25,26,26,27,27,28,28,29,29,30,30],"right_children":[2,4,6,8,10,12,14,16,18,20,22,24,26,28,30,32,34,36,38,40,42,44,46,48,50,52,54,56,58,60,62,-1,-1,-1,-1,-1,-1,-1,-1,-1,-1,-1,-1,-1,-1,-1,-1,-1,-1,-1,-1,-1,-1,-1,-1,-1,-1,-1,-1,-1,-1,-1,-1],"split_conditions":[6.1E1,4E1,9.4E1,2.8E1,5.2E1,7.5E1,1.2E2,2E1,3.4E1,4.8E1,5.9E1,6.4E1,8.3E1,9.8E1,-5E-1,1.4E1,2.8E1,1.2E1,1E0,1E0,1E0,1.2E1,1E0,1.2E1,1E0,1.2E1,1E0,1.2E1,1E0,1.46E2,1.2E1,-1.1372973E0,-9.374259E-1,-8.106009E-1,-6.5229774E-1,-5.538199E-1,-8.254631E-1,-5.37569E-1,-2.8735793E-1,-9.727087E-1,-2.4488954E-1,-2.2098921E-1,7.861957E-2,8.1546925E-2,-3.0426136E-1,4.586309E-2,4.2193118E-1,3.298865E-1,-6.6819094E-2,3.1543848E-1,6.729869E-1,8.10904E-1,2.9774353E-1,6.933607E-1,1.2148033E0,1.271893E0,2.876648E-1,9.069811E-1,1.7370948E0,2.4127433E0,3.304442E0,1.917014E0,6.6361415E-1],"split_indices":[13,12,12,13,12,12,13,12,11,11,11,11,11,11,8,11,11,3,5,5,5,3,5,3,5,3,5,3,5,12,3,0,0,0,0,0,0,0,0,0,0,0,0,0,0,0,0,0,0,0,0,0,0,0,0,0,0,0,0,0,0,0,0],"split_type":[0,0,0,0,0,0,0,0,0,0,0,0,0,0,0,0,0,0,0,0,0,0,0,0,0,0,0,0,0,0,0,0,0,0,0,0,0,0,0,0,0,0,0,0,0,0,0,0,0,0,0,0,0,0,0,0,0,0,0,0,0,0,0],"sum_hessian":[7.184E5,4.87308E5,2.31092E5,2.93654E5,1.93654E5,1.70023E5,6.1069E4,1.59249E5,1.34405E5,1.06619E5,8.7035E4,9.6769E4,7.3254E4,4.6914E4,1.4155E4,6.795E4,9.1299E4,6.8702E4,6.5703E4,6.5947E4,4.0672E4,5.3347E4,3.3688E4,4.8748E4,4.8021E4,4.513E4,2.8124E4,2.6548E4,2.0366E4,7.532E3,6.623E3,1.7785E4,5.0165E4,5.8374E4,3.2925E4,5.9312E4,9.39E3,2.0434E4,4.5269E4,1.105E3,6.4842E4,1.5603E4,2.5069E4,4.9105E4,4.242E3,1.1068E4,2.262E4,4.166E4,7.088E3,1.0597E4,3.7424E4,4.2013E4,3.117E3,5.73E3,2.2394E4,2.5302E4,1.246E3,1.663E3,1.8703E4,6.094E3,1.438E3,6.341E3,2.82E2],"tree_param":{"num_deleted":"0","num_feature":"17","num_nodes":"63","size_leaf_vector":"1"}},{"base_weights":[1.505855E-4,-4.5328736E0,6.7639832E0,-6.9927583E0,-1.9727385E0,3.7706265E0,1.2347276E1,-8.33213E0,-5.6274543E0,-3.6104798E0,-5.580586E-1,2.053468E0,5.921079E0,9.790788E0,1.6639849E1,-1.008273E1,-7.864036E0,-6.6528163E0,-4.9186296E0,-4.3487625E0,-2.382634E0,3.4729296E-1,-1.8048869E0,1.0072759E0,3.749717E0,2.6937928E0,6.9419026E0,1.1815611E1,7.9115767E0,1.49738E1,2.21353E1,-9.051282E-1,-1.0605358E0,-9.4093555E-1,-7.5296247E-1,-6.3994014E-1,-8.757332E-1,-6.55355E-1,-4.3058926E-1,-4.0035883E-1,-6.6214275E-1,-3.9190254E-1,-1.3922E-1,1.7713387E-1,-1.1732103E-1,-4.297544E-1,-1.048305E-1,1.4699492E-1,-2.2327662E-1,4.1610923E-1,-4.552972E-2,-4.0510368E-2,6.661245E-1,5.9046954E-1,9.8523265E-1,1.4487113E0,1.0197617E0,5.999412E-1,1.0129181E0,1.6959845E0,1.2354568E0,2.450275E0,1.7785746E0],"categories":[],"categories_nodes":[],"categories_segments":[],"categories_sizes":[],"default_left":[0,0,0,0,0,0,0,0,0,0,0,0,0,0,0,0,0,0,0,0,0,0,0,0,0,0,0,0,0,0,0,0,0,0,0,0,0,0,0,0,0,0,0,0,0,0,0,0,0,0,0,0,0,0,0,0,0,0,0,0,0,0,0],"id":13,"left_children":[1,3,5,7,9,11,13,15,17,19,21,23,25,27,29,31,33,35,37,39,41,43,45,47,49,51,53,55,57,59,61,-1,-1,-1,-1,-1,-1,-1,-1,-1,-1,-1,-1,-1,-1,-1,-1,-1,-1,-1,-1,-1,-1,-1,-1,-1,-1,-1,-1,-1,-1,-1,-1],"loss_changes":[2.2026648E7,2.708808E6,4.817732E6,4.01087E5,4.8833362E5,6.929575E5,1.103911E6,9.0658E4,7.89215E4,8.8541E4,1.2765752E5,1.8516531E5,2.744715E5,2.39847E5,3.43483E5,1.24955E4,4.5081E4,2.36225E4,6.431975E4,4.7828125E4,5.581483E4,1.4186383E5,8.9713375E4,9.675395E4,6.8858125E4,2.4617995E5,1.9101425E5,1.31044E5,1.3863512E5,1.49704E5,8.9502E4,0E0,0E0,0E0,0E0,0E0,0E0,0E0,0E0,0E0,0E0,0E0,0E0,0E0,0E0,0E0,0E0,0E0,0E0,0E0,0E0,0E0,0E0,0E0,0E0,0E0,0E0,0E0,0E0,0E0,0E0,0E0,0E0],"parents":[2147483647,0,0,1,1,2,2,3,3,4,4,5,5,6,6,7,7,8,8,9,9,10,10,11,11,12,12,13,13,14,14,15,15,16,16,17,17,18,18,19,19,20,20,21,21,22,22,23,23,24,24,25,25,26,26,27,27,28,28,29,29,30,30],"right_children":[2,4,6,8,10,12,14,16,18,20,22,24,26,28,30,32,34,36,38,40,42,44,46,48,50,52,54,56,58,60,62,-1,-1,-1,-1,-1,-1,-1,-1,-1,-1,-1,-1,-1,-1,-1,-1,-1,-1,-1,-1,-1,-1,-1,-1,-1,-1,-1,-1,-1,-1,-1,-1],"split_conditions":[5.4E1,3.3E1,8.3E1,2.4E1,4.2E1,6.6E1,1.03E2,1.4E1,2.7E1,4E1,3E1,6.4E1,1E0,3.1E1,1.28E2,5E-1,1.5E1,1.2E1,1E0,1.2E1,1E0,1.5E1,8E0,1.2E1,1.2E1,9.9E1,8.1E1,1.5E1,1.5E1,8E0,3.1E1,-9.051282E-1,-1.0605358E0,-9.4093555E-1,-7.5296247E-1,-6.3994014E-1,-8.757332E-1,-6.55355E-1,-4.3058926E-1,-4.0035883E-1,-6.6214275E-1,-3.9190254E-1,-1.3922E-1,1.7713387E-1,-1.1732103E-1,-4.297544E-1,-1.048305E-1,1.4699492E-1,-2.2327662E-1,4.1610923E-1,-4.552972E-2,-4.0510368E-2,6.661245E-1,5.9046954E-1,9.8523265E-1,1.4487113E0,1.0197617E0,5.999412E-1,1.0129181E0,1.6959845E0,1.2354568E0,2.450275E0,1.7785746E0],"split_indices":[13,13,13,12,12,11,12,12,11,11,6,12,5,6,12,8,11,3,5,3,5,4,4,3,3,11,11,4,4,3,6,0,0,0,0,0,0,0,0,0,0,0,0,0,0,0,0,0,0,0,0,0,0,0,0,0,0,0,0,0,0,0,0],"split_type":[0,0,0,0,0,0,0,0,0,0,0,0,0,0,0,0,0,0,0,0,0,0,0,0,0,0,0,0,0,0,0,0,0,0,0,0,0,0,0,0,0,0,0,0,0,0,0,0,0,0,0,0,0,0,0,0,0,0,0,0,0,0,0],"sum_hessian":[7.184E5,4.30132E5,2.88268E5,2.1936E5,2.10772E5,1.8766E5,1.00608E5,1.10729E5,1.08631E5,9.7684E4,1.13088E5,1.04343E5,8.3317E4,6.3057E4,3.7551E4,2.3357E4,8.7372E4,4.4398E4,6.4233E4,6.1002E4,3.6682E4,6.5516E4,4.7572E4,6.4539E4,3.9804E4,2.0022E4,6.3295E4,3.035E4,3.2707E4,2.8818E4,8.733E3,7.861E3,1.5496E4,1.5539E4,7.1833E4,3.963E4,4.768E3,1.7508E4,4.6725E4,5.2961E4,8.041E3,1.4377E4,2.2305E4,3.3831E4,3.1685E4,1.1076E4,3.6496E4,5.6475E4,8.064E3,3.6257E4,3.547E3,1.1242E4,8.78E3,4.6667E4,1.6628E4,1.1445E4,1.8905E4,1.7565E4,1.5142E4,1.6387E4,1.2431E4,5.652E3,3.081E3],"tree_param":{"num_deleted":"0","num_feature":"17","num_nodes":"63","size_leaf_vector":"1"}},{"base_weights":[1.4331542E-4,-3.3554637E0,7.42708E0,-5.652809E0,-2.3523998E-1,5.380775E0,1.3588955E1,-6.886055E0,-3.8925295E0,-1.5800653E0,1.386155E0,3.800464E0,7.7486453E0,1.1414657E1,1.7541117E1,-8.374982E0,-6.206299E0,-4.4642577E0,-2.5855405E0,-6.51557E-1,-2.6938245E0,2.3578913E0,1.900061E-1,5.173197E0,2.3516083E0,9.113843E0,5.934627E0,1.1965659E1,3.7938046E0,1.6345066E1,2.3758158E1,-9.7485924E-1,-7.9108584E-1,-5.9536767E-1,-8.147605E-1,-9.0751165E-1,-4.2731985E-1,-4.0634775E-1,-1.385766E-1,1.7399023E-1,-1.4699225E-1,-4.031922E-1,-1.4867643E-1,3.7986347E-1,7.366388E-2,-2.5004742E-1,9.779116E-2,8.5971636E-1,4.115556E-1,6.681402E-2,4.1095352E-1,1.0961719E0,7.565182E-1,2.2871223E-1,7.361052E-1,9.811501E-1,1.3461655E0,-2.509352E-2,7.0994693E-1,8.2513905E-1,1.7066643E0,2.228256E0,3.3302324E0],"categories":[],"categories_nodes":[],"categories_segments":[],"categories_sizes":[],"default_left":[0,0,0,0,0,0,0,0,0,0,0,0,0,0,0,0,0,0,0,0,0,0,0,0,0,0,0,0,0,0,0,0,0,0,0,0,0,0,0,0,0,0,0,0,0,0,0,0,0,0,0,0,0,0,0,0,0,0,0,0,0,0,0],"id":14,"left_children":[1,3,5,7,9,11,13,15,17,19,21,23,25,27,29,31,33,35,37,39,41,43,45,47,49,51,53,55,57,59,61,-1,-1,-1,-1,-1,-1,-1,-1,-1,-1,-1,-1,-1,-1,-1,-1,-1,-1,-1,-1,-1,-1,-1,-1,-1,-1,-1,-1,-1,-1,-1,-1],"loss_changes":[1.790393E7,3.547055E6,2.818963E6,6.18657E5,4.5754812E5,6.280115E5,4.78748E5,1.69561E5,8.772375E4,1.1861453E5,1.1058008E5,2.0018975E5,1.663115E5,1.509465E5,1.466865E5,3.3409E4,5.6379E4,7.1917E4,6.3355812E4,1.22426195E5,8.422159E4,1.2260847E5,9.040319E4,1.8714012E5,1.4493156E5,1.096045E5,1.5008656E5,1.079315E5,3.2438742E4,9.67535E4,4.4169875E4,0E0,0E0,0E0,0E0,0E0,0E0,0E0,0E0,0E0,0E0,0E0,0E0,0E0,0E0,0E0,0E0,0E0,0E0,0E0,0E0,0E0,0E0,0E0,0E0,0E0,0E0,0E0,0E0,0E0,0E0,0E0,0E0],"parents":[2147483647,0,0,1,1,2,2,3,3,4,4,5,5,6,6,7,7,8,8,9,9,10,10,11,11,12,12,13,13,14,14,15,15,16,16,17,17,18,18,19,19,20,20,21,21,22,22,23,23,24,24,25,25,26,26,27,27,28,28,29,29,30,30],"right_children":[2,4,6,8,10,12,14,16,18,20,22,24,26,28,30,32,34,36,38,40,42,44,46,48,50,52,54,56,58,60,62,-1,-1,-1,-1,-1,-1,-1,-1,-1,-1,-1,-1,-1,-1,-1,-1,-1,-1,-1,-1,-1,-1,-1,-1,-1,-1,-1,-1,-1,-1,-1,-1],"split_conditions":[6.2E1,3.9E1,9.6E1,2.9E1,5.1E1,7.8E1,1.08E2,1.8E1,4E1,3.1E1,2.9E1,8E0,8E0,1.2E1,1.4E2,1.2E1,1.2E1,1E0,1E0,8E0,1.5E1,1.5E1,8E0,8E0,1.5E1,1.5E1,8E0,-5E-1,8E0,1E0,1.52E2,-9.7485924E-1,-7.9108584E-1,-5.9536767E-1,-8.147605E-1,-9.0751165E-1,-4.2731985E-1,-4.0634775E-1,-1.385766E-1,1.7399023E-1,-1.4699225E-1,-4.031922E-1,-1.4867643E-1,3.7986347E-1,7.366388E-2,-2.5004742E-1,9.779116E-2,8.5971636E-1,4.115556E-1,6.681402E-2,4.1095352E-1,1.0961719E0,7.565182E-1,2.2871223E-1,7.361052E-1,9.811501E-1,1.3461655E0,-2.509352E-2,7.0994693E-1,8.2513905E-1,1.7066643E0,2.228256E0,3.3302324E0],"split_indices":[13,13,13,12,12,12,11,13,11,6,6,3,3,3,13,13,3,5,5,4,4,4,4,4,4,4,4,7,4,5,11,0,0,0,0,0,0,0,0,0,0,0,0,0,0,0,0,0,0,0,0,0,0,0,0,0,0,0,0,0,0,0,0],"split_type":[0,0,0,0,0,0,0,0,0,0,0,0,0,0,0,0,0,0,0,0,0,0,0,0,0,0,0,0,0,0,0,0,0,0,0,0,0,0,0,0,0,0,0,0,0,0,0,0,0,0,0,0,0,0,0,0,0,0,0,0,0,0,0],"sum_hessian":[7.184E5,4.94829E5,2.23571E5,2.84994E5,2.09835E5,1.67836E5,5.5735E4,1.67583E5,1.17411E5,1.147E5,9.5135E4,1.00659E5,6.7177E4,3.5957E4,1.9778E4,5.2524E4,1.15059E5,8.1679E4,3.5732E4,6.2553E4,5.2147E4,5.2491E4,4.2644E4,5.1686E4,4.8973E4,3.8328E4,2.8849E4,3.3532E4,2.425E3,1.659E4,3.188E3,1.326E4,3.9264E4,1.01814E5,1.3245E4,3.248E3,7.8431E4,1.6009E4,1.9723E4,1.5948E4,4.6605E4,2.473E4,2.7417E4,2.7792E4,2.4699E4,9.659E3,3.2985E4,1.2196E4,3.949E4,2.5017E4,2.3956E4,1.7473E4,2.0855E4,8.111E3,2.0738E4,1.3746E4,1.9786E4,1.091E3,1.334E3,1.359E3,1.5231E4,2.764E3,4.24E2],"tree_param":{"num_deleted":"0","num_feature":"17","num_nodes":"63","size_leaf_vector":"1"}},{"base_weights":[1.4347651E-4,-2.8959062E0,7.038476E0,-5.00566E0,1.55312875E-2,5.322368E0,1.2846265E1,-6.515335E0,-3.7343059E0,-1.3349718E0,1.3689675E0,3.4951942E0,7.0622754E0,1.1207457E1,1.6896494E1,-9.495994E0,-6.214913E0,-5.3373685E0,-3.13394E0,-3.0704186E0,-8.403727E-1,-5.691889E-1,2.089151E0,7.8263766E-1,3.9675372E0,3.566422E0,7.79157E0,1.1662555E1,3.5015583E0,1.0701016E1,1.8024784E1,-9.2787904E-1,-1.080036E0,-7.550164E-1,-5.525297E-1,-6.503317E-1,-1.4944446E-1,-3.4976193E-1,-2.5530845E-2,-2.3975308E-1,-5.3466874E-1,-8.14356E-1,-6.835617E-2,-2.791532E-1,3.2195863E-1,1.5108995E-1,5.6008536E-1,1.7458709E-1,-3.6197108E-1,2.931504E-1,5.083261E-1,1.1377686E-1,8.3150405E-1,6.6619277E-1,1.0595672E0,9.522552E-1,1.3115546E0,7.232888E-3,6.909099E-1,1.3055946E0,5.6771314E-1,1.7212294E0,2.7105083E0],"categories":[],"categories_nodes":[],"categories_segments":[],"categories_sizes":[],"default_left":[0,0,0,0,0,0,0,0,0,0,0,0,0,0,0,0,0,0,0,0,0,0,0,0,0,0,0,0,0,0,0,0,0,0,0,0,0,0,0,0,0,0,0,0,0,0,0,0,0,0,0,0,0,0,0,0,0,0,0,0,0,0,0],"id":15,"left_children":[1,3,5,7,9,11,13,15,17,19,21,23,25,27,29,31,33,35,37,39,41,43,45,47,49,51,53,55,57,59,61,-1,-1,-1,-1,-1,-1,-1,-1,-1,-1,-1,-1,-1,-1,-1,-1,-1,-1,-1,-1,-1,-1,-1,-1,-1,-1,-1,-1,-1,-1,-1,-1],"loss_changes":[1.4643447E7,3.1263365E6,2.087247E6,5.66407E5,3.9089388E5,5.13914E5,3.16867E5,1.20749E5,1.5417025E5,9.187955E4,1.4909377E5,1.0103044E5,2.110895E5,1.1923E5,9.59795E4,3.399E3,1.128155E5,1.9557075E5,1.220235E5,3.6350656E4,9.5397016E4,2.4366575E5,1.5813019E5,4.960307E4,7.7617125E4,1.6485119E5,2.16953E5,9.97275E4,2.2178084E4,2.5031016E4,8.5387E4,0E0,0E0,0E0,0E0,0E0,0E0,0E0,0E0,0E0,0E0,0E0,0E0,0E0,0E0,0E0,0E0,0E0,0E0,0E0,0E0,0E0,0E0,0E0,0E0,0E0,0E0,0E0,0E0,0E0,0E0,0E0,0E0],"parents":[2147483647,0,0,1,1,2,2,3,3,4,4,5,5,6,6,7,7,8,8,9,9,10,10,11,11,12,12,13,13,14,14,15,15,16,16,17,17,18,18,19,19,20,20,21,21,22,22,23,23,24,24,25,25,26,26,27,27,28,28,29,29,30,30],"right_children":[2,4,6,8,10,12,14,16,18,20,22,24,26,28,30,32,34,36,38,40,42,44,46,48,50,52,54,56,58,60,62,-1,-1,-1,-1,-1,-1,-1,-1,-1,-1,-1,-1,-1,-1,-1,-1,-1,-1,-1,-1,-1,-1,-1,-1,-1,-1,-1,-1,-1,-1,-1,-1],"split_conditions":[6.4E1,4E1,9.9E1,2.6E1,5E1,7.3E1,1.14E2,1E0,1E0,3.5E1,1E0,5.2E1,1E0,1.2E1,3E0,4.9E1,1.7E1,5.4E1,4.4E1,4.8E1,1E0,8.1E1,6.8E1,1.2E1,7.1E1,1.18E2,9E1,-5E-1,8E0,-5E-1,1.47E2,-9.2787904E-1,-1.080036E0,-7.550164E-1,-5.525297E-1,-6.503317E-1,-1.4944446E-1,-3.4976193E-1,-2.5530845E-2,-2.3975308E-1,-5.3466874E-1,-8.14356E-1,-6.835617E-2,-2.791532E-1,3.2195863E-1,1.5108995E-1,5.6008536E-1,1.7458709E-1,-3.6197108E-1,2.931504E-1,5.083261E-1,1.1377686E-1,8.3150405E-1,6.6619277E-1,1.0595672E0,9.522552E-1,1.3115546E0,7.232888E-3,6.909099E-1,1.3055946E0,5.6771314E-1,1.7212294E0,2.7105083E0],"split_indices":[12,13,13,11,11,11,11,5,5,11,5,11,5,3,5,6,11,11,11,6,5,11,11,3,13,11,11,7,4,8,11,0,0,0,0,0,0,0,0,0,0,0,0,0,0,0,0,0,0,0,0,0,0,0,0,0,0,0,0,0,0,0,0],"split_type":[0,0,0,0,0,0,0,0,0,0,0,0,0,0,0,0,0,0,0,0,0,0,0,0,0,0,0,0,0,0,0,0,0,0,0,0,0,0,0,0,0,0,0,0,0,0,0,0,0,0,0,0,0,0,0,0,0,0,0,0,0,0,0],"sum_hessian":[7.184E5,5.08974E5,2.09426E5,2.95118E5,2.13856E5,1.6166E5,4.7766E4,1.34912E5,1.60206E5,1.07044E5,1.06812E5,7.8854E4,8.2806E4,3.4009E4,1.3757E4,1.235E4,1.22562E5,4.3649E4,1.16557E5,2.374E4,8.3304E4,2.8937E4,7.7875E4,1.1695E4,6.7159E4,1.4294E4,6.8512E4,3.2112E4,1.897E3,2.121E3,1.1636E4,1.0594E4,1.756E3,4.1738E4,8.0824E4,3.3488E4,1.0161E4,1.03483E5,1.3074E4,1.8325E4,5.415E3,1.75E3,8.1554E4,1.8239E4,1.0698E4,6.6866E4,1.1009E4,9.596E3,2.099E3,3.4825E4,3.2334E4,9.458E3,4.836E3,4.884E4,1.9672E4,1.2989E4,1.9123E4,9.46E2,9.51E2,1.443E3,6.78E2,1.0683E4,9.53E2],"tree_param":{"num_deleted":"0","num_feature":"17","num_nodes":"63","size_leaf_vector":"1"}},{"base_weights":[1.3920758E-4,-3.4173934E0,4.8498144E0,-5.337027E0,-1.7331278E0,2.529204E0,8.836062E0,-6.4126825E0,-4.4991403E0,-2.7529225E0,-4.829502E-1,1.4224991E0,4.225795E0,7.4862576E0,1.36996975E1,-8.9188385E0,-6.1740227E0,-5.8580832E0,-3.935944E0,-7.369734E0,-2.6102266E0,-2.0049047E0,2.1508792E-1,1.7836719E0,-1.6079713E0,1.8704078E0,5.104115E0,9.126199E0,5.7834973E0,1.6316986E1,1.1143153E1,-8.712474E-1,-9.883097E-1,-7.705156E-1,-5.768253E-1,-6.789493E-1,-2.7847415E-1,-4.4480368E-1,-2.7849635E-1,-6.7635095E-1,-9.691488E-1,-4.107072E-1,-2.1786211E-1,-4.0832105E-1,6.25789E-2,-3.2316294E-2,2.8098938E-1,4.3059193E-2,2.4566029E-1,-5.106726E-1,3.6073625E-1,-6.5967806E-2,4.9448952E-1,4.6002778E-1,8.60352E-1,1.1509889E0,7.4985784E-1,3.9275098E-1,7.728695E-1,1.5216572E0,2.2397268E0,8.1728953E-1,1.245832E0],"categories":[],"categories_nodes":[],"categories_segments":[],"categories_sizes":[],"default_left":[0,0,0,0,0,0,0,0,0,0,0,0,0,0,0,0,0,0,0,0,0,0,0,0,0,0,0,0,0,0,0,0,0,0,0,0,0,0,0,0,0,0,0,0,0,0,0,0,0,0,0,0,0,0,0,0,0,0,0,0,0,0,0],"id":16,"left_children":[1,3,5,7,9,11,13,15,17,19,21,23,25,27,29,31,33,35,37,39,41,43,45,47,49,51,53,55,57,59,61,-1,-1,-1,-1,-1,-1,-1,-1,-1,-1,-1,-1,-1,-1,-1,-1,-1,-1,-1,-1,-1,-1,-1,-1,-1,-1,-1,-1,-1,-1,-1,-1],"loss_changes":[1.190674E7,1.362534E6,2.747163E6,1.774785E5,2.8618856E5,3.5243362E5,7.17263E5,5.152525E4,8.4713E4,8.142756E4,1.0713955E5,1.24344E5,1.5329362E5,2.388E5,1.586475E5,1.4055E3,4.887675E4,9.2836125E4,4.612525E4,5.150672E3,7.746756E4,1.7337334E5,9.6564336E4,9.242316E4,2.2077273E5,1.5658106E5,9.5125375E4,1.6895425E5,1.514815E5,7.812275E4,4.6817875E4,0E0,0E0,0E0,0E0,0E0,0E0,0E0,0E0,0E0,0E0,0E0,0E0,0E0,0E0,0E0,0E0,0E0,0E0,0E0,0E0,0E0,0E0,0E0,0E0,0E0,0E0,0E0,0E0,0E0,0E0,0E0,0E0],"parents":[2147483647,0,0,1,1,2,2,3,3,4,4,5,5,6,6,7,7,8,8,9,9,10,10,11,11,12,12,13,13,14,14,15,15,16,16,17,17,18,18,19,19,20,20,21,21,22,22,23,23,24,24,25,25,26,26,27,27,28,28,29,29,30,30],"right_children":[2,4,6,8,10,12,14,16,18,20,22,24,26,28,30,32,34,36,38,40,42,44,46,48,50,52,54,56,58,60,62,-1,-1,-1,-1,-1,-1,-1,-1,-1,-1,-1,-1,-1,-1,-1,-1,-1,-1,-1,-1,-1,-1,-1,-1,-1,-1,-1,-1,-1,-1,-1,-1],"split_conditions":[5.3E1,3.1E1,8.1E1,2.2E1,4.3E1,6.7E1,1.12E2,1E0,1E0,1E0,1E0,1.2E1,1E0,3.1E1,-5E-1,1.2E1,1.3E1,4.4E1,3.1E1,4.9E1,2.8E1,6.6E1,5.8E1,-5E-1,1.5E1,9.7E1,8.7E1,1.5E1,1.5E1,1.42E2,9E0,-8.712474E-1,-9.883097E-1,-7.705156E-1,-5.768253E-1,-6.789493E-1,-2.7847415E-1,-4.4480368E-1,-2.7849635E-1,-6.7635095E-1,-9.691488E-1,-4.107072E-1,-2.1786211E-1,-4.0832105E-1,6.25789E-2,-3.2316294E-2,2.8098938E-1,4.3059193E-2,2.4566029E-1,-5.106726E-1,3.6073625E-1,-6.5967806E-2,4.9448952E-1,4.6002778E-1,8.60352E-1,1.1509889E0,7.4985784E-1,3.9275098E-1,7.728695E-1,1.5216572E0,2.2397268E0,8.1728953E-1,1.245832E0],"split_indices":[13,13,13,11,11,11,13,5,5,5,5,3,5,6,8,3,11,11,11,6,11,11,11,7,4,11,11,4,4,13,4,0,0,0,0,0,0,0,0,0,0,0,0,0,0,0,0,0,0,0,0,0,0,0,0,0,0,0,0,0,0,0,0],"split_type":[0,0,0,0,0,0,0,0,0,0,0,0,0,0,0,0,0,0,0,0,0,0,0,0,0,0,0,0,0,0,0,0,0,0,0,0,0,0,0,0,0,0,0,0,0,0,0,0,0,0,0,0,0,0,0,0,0,0,0,0,0,0,0],"sum_hessian":[7.184E5,4.21425E5,2.96975E5,1.9695E5,2.24475E5,1.87704E5,1.09271E5,8.6236E4,1.10714E5,1.23628E5,1.00847E5,1.13602E5,7.4102E4,8.5535E4,2.3736E4,7.495E3,7.8741E4,3.2437E4,7.8277E4,3.705E3,1.19923E5,3.1709E4,6.9138E4,1.01505E5,1.2097E4,2.0128E4,5.3974E4,4.3569E4,4.1966E4,1.1726E4,1.201E4,6.182E3,1.313E3,1.6492E4,6.2249E4,2.4892E4,7.545E3,5.4172E4,2.4105E4,2.941E3,7.64E2,2.6838E4,9.3085E4,1.7714E4,1.3995E4,5.7261E4,1.1877E4,3.3715E4,6.779E4,7.24E3,4.857E3,1.1042E4,9.086E3,4.7183E4,6.791E3,1.7676E4,2.5893E4,2.1477E4,2.0489E4,9.932E3,1.794E3,3.688E3,8.322E3],"tree_param":{"num_deleted":"0","num_feature":"17","num_nodes":"63","size_leaf_vector":"1"}},{"base_weights":[1.3009018E-4,-2.356228E0,5.726839E0,-4.39984E0,-3.736124E-1,4.2534347E0,1.03585825E1,-5.291524E0,-3.1327443E0,-1.8014268E0,7.764728E-1,2.9846838E0,5.7719927E0,9.082945E0,1.43401785E1,-7.0703425E0,-4.9503303E0,-2.8937805E0,-4.915528E0,-2.9979186E0,-1.1806657E0,1.5882683E0,-1.6660897E-1,2.1652293E0,4.048914E0,2.930772E0,6.454935E0,1.0411832E1,7.2213674E0,1.3621653E1,2.2162378E1,-7.644639E-1,-6.145525E-1,-5.9191924E-1,-4.218433E-1,-3.235695E-1,-1.6464636E-1,-9.3224186E-1,-2.823548E-1,-4.1071677E-1,1.6049353E-2,-1.4896421E-1,1.6277173E-1,4.1832733E-1,7.250679E-2,-1.252054E-1,7.9198785E-2,-7.405917E-1,2.2532652E-1,4.4371063E-1,6.261634E-2,-4.9737927E-2,5.5024827E-1,5.6994367E-1,9.4807196E-1,1.4049844E0,9.660678E-1,3.6561677E-1,8.834613E-1,1.5552772E0,1.1497511E0,1.9782975E0,2.7105272E0],"categories":[],"categories_nodes":[],"categories_segments":[],"categories_sizes":[],"default_left":[0,0,0,0,0,0,0,0,0,0,0,0,0,0,0,0,0,0,0,0,0,0,0,0,0,0,0,0,0,0,0,0,0,0,0,0,0,0,0,0,0,0,0,0,0,0,0,0,0,0,0,0,0,0,0,0,0,0,0,0,0,0,0],"id":17,"left_children":[1,3,5,7,9,11,13,15,17,19,21,23,25,27,29,31,33,35,37,39,41,43,45,47,49,51,53,55,57,59,61,-1,-1,-1,-1,-1,-1,-1,-1,-1,-1,-1,-1,-1,-1,-1,-1,-1,-1,-1,-1,-1,-1,-1,-1,-1,-1,-1,-1,-1,-1,-1,-1],"loss_changes":[9.694244E6,2.0622115E6,1.429176E6,2.8316E5,4.242302E5,3.06104E5,2.565765E5,8.92475E4,4.409E4,8.560116E4,1.095477E5,7.548356E4,1.40314E5,9.462525E4,6.861625E4,1.252625E4,8.7504E4,3.89285E4,1.1276966E5,1.379321E5,6.585139E4,1.7224695E5,6.887508E4,4.122758E4,5.0031562E4,1.23579586E5,1.33232E5,6.08965E4,9.169325E4,4.5898625E4,1.157775E4,0E0,0E0,0E0,0E0,0E0,0E0,0E0,0E0,0E0,0E0,0E0,0E0,0E0,0E0,0E0,0E0,0E0,0E0,0E0,0E0,0E0,0E0,0E0,0E0,0E0,0E0,0E0,0E0,0E0,0E0,0E0,0E0],"parents":[2147483647,0,0,1,1,2,2,3,3,4,4,5,5,6,6,7,7,8,8,9,9,10,10,11,11,12,12,13,13,14,14,15,15,16,16,17,17,18,18,19,19,20,20,21,21,22,22,23,23,24,24,25,25,26,26,27,27,28,28,29,29,30,30],"right_children":[2,4,6,8,10,12,14,16,18,20,22,24,26,28,30,32,34,36,38,40,42,44,46,48,50,52,54,56,58,60,62,-1,-1,-1,-1,-1,-1,-1,-1,-1,-1,-1,-1,-1,-1,-1,-1,-1,-1,-1,-1,-1,-1,-1,-1,-1,-1,-1,-1,-1,-1,-1,-1],"split_conditions":[6.4E1,3.6E1,9.8E1,2.8E1,4.6E1,7.5E1,1.22E2,1E0,1.2E1,1E0,3.1E1,7.2E1,1E0,8E0,1.54E2,2.8E1,1.9E1,4.1E1,8E0,6.2E1,5.3E1,8E0,1.5E1,1E0,1.2E1,1.06E2,9.4E1,8E0,8E0,-5E-1,1.49E2,-7.644639E-1,-6.145525E-1,-5.9191924E-1,-4.218433E-1,-3.235695E-1,-1.6464636E-1,-9.3224186E-1,-2.823548E-1,-4.1071677E-1,1.6049353E-2,-1.4896421E-1,1.6277173E-1,4.1832733E-1,7.250679E-2,-1.252054E-1,7.9198785E-2,-7.405917E-1,2.2532652E-1,4.4371063E-1,6.261634E-2,-4.9737927E-2,5.5024827E-1,5.6994367E-1,9.4807196E-1,1.4049844E0,9.660678E-1,3.6561677E-1,8.834613E-1,1.5552772E0,1.1497511E0,1.9782975E0,2.7105272E0],"split_indices":[12,11,12,12,13,11,13,5,3,5,6,13,5,3,12,11,11,12,4,11,11,4,4,5,3,11,11,4,4,8,11,0,0,0,0,0,0,0,0,0,0,0,0,0,0,0,0,0,0,0,0,0,0,0,0,0,0,0,0,0,0,0,0],"split_type":[0,0,0,0,0,0,0,0,0,0,0,0,0,0,0,0,0,0,0,0,0,0,0,0,0,0,0,0,0,0,0,0,0,0,0,0,0,0,0,0,0,0,0,0,0,0,0,0,0,0,0,0,0,0,0,0,0,0,0,0,0,0,0],"sum_hessian":[7.184E5,5.08974E5,2.09426E5,2.50631E5,2.58343E5,1.58885E5,5.0541E4,1.47106E5,1.03525E5,1.15255E5,1.43088E5,8.6564E4,7.2321E4,3.828E4,1.2261E4,2.3672E4,1.23434E5,9.1291E4,1.2234E4,3.9369E4,7.5886E4,7.6896E4,6.6192E4,4.8908E4,3.7656E4,1.4016E4,5.8305E4,2.2333E4,1.5947E4,1.1232E4,1.029E3,1.4599E4,9.073E3,5.3115E4,7.0319E4,7.1649E4,1.9642E4,3.937E3,8.297E3,2.9136E4,1.0233E4,6.8365E4,7.521E3,1.9193E4,5.7703E4,3.1042E4,3.515E4,4.45E2,4.8463E4,3.382E4,3.836E3,6.008E3,8.008E3,4.6658E4,1.1647E4,3.819E3,1.8514E4,4.969E3,1.0978E4,5.88E3,5.352E3,6.98E2,3.31E2],"tree_param":{"num_deleted":"0","num_feature":"17","num_nodes":"63","size_leaf_vector":"1"}},{"base_weights":[1.2968743E-4,-2.1284568E0,5.1921554E0,-3.6203268E0,8.208042E-2,3.9430985E0,9.659872E0,-4.7013683E0,-2.5792677E0,-8.2087445E-1,1.1109806E0,2.8383317E0,5.538009E0,8.559955E0,1.3489298E1,-5.72874E0,-4.2479434E0,-1.9106672E0,-3.4097986E0,-5.784315E-1,-3.097659E0,-4.157565E-1,1.7277887E0,3.9424813E0,1.7380776E0,6.6686397E0,4.1366343E0,1.0144747E1,7.0068026E0,1.2524645E1,1.8701956E1,-4.9523422E-1,-6.2565E-1,-4.066782E-1,-5.822623E-1,-1.6247177E-2,-2.5174424E-1,-4.2747313E-1,-2.6414198E-1,-1.2240844E-1,2.540103E-2,-7.323994E-1,1.7955644E-2,-2.2452407E-1,2.9508534E-1,1.1960478E-1,4.126207E-1,7.0064974E-1,3.0082443E-1,4.02914E-2,3.11979E-1,9.9924177E-1,5.899953E-1,1.2239214E-1,5.274157E-1,1.2632997E0,8.729133E-1,3.7954935E-1,8.105592E-1,1.3921158E0,1.0129126E0,2.039866E0,1.4298071E0],"categories":[],"categories_nodes":[],"categories_segments":[],"categories_sizes":[],"default_left":[0,0,0,0,0,0,0,0,0,0,0,0,0,0,0,0,0,0,0,0,0,0,0,0,0,0,0,0,0,0,0,0,0,0,0,0,0,0,0,0,0,0,0,0,0,0,0,0,0,0,0,0,0,0,0,0,0,0,0,0,0,0,0],"id":18,"left_children":[1,3,5,7,9,11,13,15,17,19,21,23,25,27,29,31,33,35,37,39,41,43,45,47,49,51,53,55,57,59,61,-1,-1,-1,-1,-1,-1,-1,-1,-1,-1,-1,-1,-1,-1,-1,-1,-1,-1,-1,-1,-1,-1,-1,-1,-1,-1,-1,-1,-1,-1,-1,-1],"loss_changes":[7.9395455E6,1.6802965E6,1.1656425E6,3.4235175E5,1.907424E5,2.8762975E5,1.921185E5,6.949575E4,8.604831E4,6.035671E4,9.036848E4,1.1716006E5,1.05819E5,8.720575E4,5.0964875E4,1.8692125E4,2.95145E4,9.107444E4,4.592225E4,5.3115633E4,1.4575128E5,1.7008566E5,8.716309E4,1.3777194E5,8.912161E4,9.44025E4,9.883847E4,6.1700875E4,6.3169188E4,2.86125E4,1.15739375E4,0E0,0E0,0E0,0E0,0E0,0E0,0E0,0E0,0E0,0E0,0E0,0E0,0E0,0E0,0E0,0E0,0E0,0E0,0E0,0E0,0E0,0E0,0E0,0E0,0E0,0E0,0E0,0E0,0E0,0E0,0E0,0E0],"parents":[2147483647,0,0,1,1,2,2,3,3,4,4,5,5,6,6,7,7,8,8,9,9,10,10,11,11,12,12,13,13,14,14,15,15,16,16,17,17,18,18,19,19,20,20,21,21,22,22,23,23,24,24,25,25,26,26,27,27,28,28,29,29,30,30],"right_children":[2,4,6,8,10,12,14,16,18,20,22,24,26,28,30,32,34,36,38,40,42,44,46,48,50,52,54,56,58,60,62,-1,-1,-1,-1,-1,-1,-1,-1,-1,-1,-1,-1,-1,-1,-1,-1,-1,-1,-1,-1,-1,-1,-1,-1,-1,-1,-1,-1,-1,-1,-1,-1],"split_conditions":[6.4E1,4.1E1,1E2,2.7E1,5.2E1,8E1,1.25E2,1.7E1,3.1E1,1.2E1,1E0,3.1E1,3.1E1,3.1E1,1.5E2,5E-1,1.2E1,8E0,1.5E1,4.8E1,1.5E1,8.3E1,6.8E1,8E0,1.5E1,8E0,8E0,1.5E1,8E0,8E0,3.1E1,-4.9523422E-1,-6.2565E-1,-4.066782E-1,-5.822623E-1,-1.6247177E-2,-2.5174424E-1,-4.2747313E-1,-2.6414198E-1,-1.2240844E-1,2.540103E-2,-7.323994E-1,1.7955644E-2,-2.2452407E-1,2.9508534E-1,1.1960478E-1,4.126207E-1,7.0064974E-1,3.0082443E-1,4.02914E-2,3.11979E-1,9.9924177E-1,5.899953E-1,1.2239214E-1,5.274157E-1,1.2632997E0,8.729133E-1,3.7954935E-1,8.105592E-1,1.3921158E0,1.0129126E0,2.039866E0,1.4298071E0],"split_indices":[13,12,13,13,11,12,12,13,6,3,5,6,6,6,12,8,3,4,4,13,4,11,11,4,4,4,4,4,4,3,6,0,0,0,0,0,0,0,0,0,0,0,0,0,0,0,0,0,0,0,0,0,0,0,0,0,0,0,0,0,0,0,0],"split_type":[0,0,0,0,0,0,0,0,0,0,0,0,0,0,0,0,0,0,0,0,0,0,0,0,0,0,0,0,0,0,0,0,0,0,0,0,0,0,0,0,0,0,0,0,0,0,0,0,0,0,0,0,0,0,0,0,0,0,0,0,0,0,0],"sum_hessian":[7.184E5,5.09514E5,2.08886E5,3.04207E5,2.05307E5,1.63248E5,4.5638E4,1.49236E5,1.54971E5,1.09346E5,9.5961E4,9.6445E4,6.6803E4,3.5457E4,1.0181E4,4.5693E4,1.03543E5,8.5857E4,6.9114E4,9.8824E4,1.0522E4,2.7613E4,6.8348E4,4.8136E4,4.8309E4,3.6971E4,2.9832E4,1.7547E4,1.791E4,8.594E3,1.587E3,1.8495E4,2.7198E4,9.2863E4,1.068E4,2.2122E4,6.3735E4,3.2512E4,3.6602E4,5.5656E4,4.3168E4,4.595E3,5.927E3,1.7891E4,9.722E3,5.5946E4,1.2402E4,1.1246E4,3.689E4,2.4569E4,2.374E4,6.942E3,3.0029E4,8.379E3,2.1453E4,6.36E3,1.1187E4,4.567E3,1.3343E4,5.426E3,3.168E3,1.143E3,4.44E2],"tree_param":{"num_deleted":"0","num_feature":"17","num_nodes":"63","size_leaf_vector":"1"}},{"base_weights":[1.2981622E-4,-2.291448E0,3.941771E0,-3.6388073E0,-6.753459E-1,2.0373561E0,6.5885406E0,-4.5431633E0,-2.9031835E0,-1.5787305E0,3.2968026E-1,2.613891E-1,2.7538483E0,5.785087E0,1.1137993E1,-6.6009126E0,-4.3422256E0,-4.3603244E0,-2.4050763E0,-4.798781E0,-1.3533156E0,5.852036E-1,-1.6840174E0,-1.0523455E0,3.4288445E0,2.136291E0,4.528455E0,4.655941E0,7.1369004E0,1.0555343E1,1.7515589E1,-6.418645E-1,-7.49036E-1,-5.8171695E-1,-4.0514717E-1,-5.3217E-1,-3.124164E-1,-2.6670644E-1,-8.652597E-2,-4.3257567E-1,-7.1674436E-1,-1.7412728E-1,-1.238404E-2,-5.7139196E-2,1.0136314E-1,-6.4987195E-1,1.4916901E-1,-7.217697E-2,-5.356487E-1,2.5597703E-1,6.0956407E-1,2.503414E-1,4.9803574E-2,6.8265903E-1,3.7464246E-1,4.9284467E-1,1.2538132E-1,3.425741E-1,7.6859385E-1,1.0779877E0,-2.043804E-1,1.6328442E0,2.5236876E0],"categories":[],"categories_nodes":[],"categories_segments":[],"categories_sizes":[],"default_left":[0,0,0,0,0,0,0,0,0,0,0,0,0,0,0,0,0,0,0,0,0,0,0,0,0,0,0,0,0,0,0,0,0,0,0,0,0,0,0,0,0,0,0,0,0,0,0,0,0,0,0,0,0,0,0,0,0,0,0,0,0,0,0],"id":19,"left_children":[1,3,5,7,9,11,13,15,17,19,21,23,25,27,29,31,33,35,37,39,41,43,45,47,49,51,53,55,57,59,61,-1,-1,-1,-1,-1,-1,-1,-1,-1,-1,-1,-1,-1,-1,-1,-1,-1,-1,-1,-1,-1,-1,-1,-1,-1,-1,-1,-1,-1,-1,-1,-1],"loss_changes":[6.489022E6,9.8919825E5,1.3312605E6,1.6480175E5,1.8752972E5,1.9544769E5,4.039015E5,4.591925E4,9.9149375E4,7.894684E4,5.0310277E4,1.837412E5,1.1993225E5,1.4334125E5,6.1450875E4,1.5542812E3,4.339375E4,4.1343688E4,4.1072125E4,7.942E3,4.84895E4,4.2994168E4,1.6835352E5,4.4404555E4,2.9986281E4,4.8830938E4,5.0751E4,4.7445625E4,8.70755E4,4.3024625E4,1.2301594E4,0E0,0E0,0E0,0E0,0E0,0E0,0E0,0E0,0E0,0E0,0E0,0E0,0E0,0E0,0E0,0E0,0E0,0E0,0E0,0E0,0E0,0E0,0E0,0E0,0E0,0E0,0E0,0E0,0E0,0E0,0E0,0E0],"parents":[2147483647,0,0,1,1,2,2,3,3,4,4,5,5,6,6,7,7,8,8,9,9,10,10,11,11,12,12,13,13,14,14,15,15,16,16,17,17,18,18,19,19,20,20,21,21,22,22,23,23,24,24,25,25,26,26,27,27,28,28,29,29,30,30],"right_children":[2,4,6,8,10,12,14,16,18,20,22,24,26,28,30,32,34,36,38,40,42,44,46,48,50,52,54,56,58,60,62,-1,-1,-1,-1,-1,-1,-1,-1,-1,-1,-1,-1,-1,-1,-1,-1,-1,-1,-1,-1,-1,-1,-1,-1,-1,-1,-1,-1,-1,-1,-1,-1],"split_conditions":[5.7E1,3.6E1,8E1,2.4E1,4.8E1,1E0,1.18E2,1E0,1E0,1E0,1.2E1,9.1E1,7.4E1,8.9E1,1.51E2,1.2E1,1.3E1,3.9E1,3.9E1,4.9E1,8.660254E-1,4.8E1,8E0,1.2E1,1.14E2,9.749279E-1,8E0,1.2E1,1E0,1.2E1,1.58E2,-6.418645E-1,-7.49036E-1,-5.8171695E-1,-4.0514717E-1,-5.3217E-1,-3.124164E-1,-2.6670644E-1,-8.652597E-2,-4.3257567E-1,-7.1674436E-1,-1.7412728E-1,-1.238404E-2,-5.7139196E-2,1.0136314E-1,-6.4987195E-1,1.4916901E-1,-7.217697E-2,-5.356487E-1,2.5597703E-1,6.0956407E-1,2.503414E-1,4.9803574E-2,6.8265903E-1,3.7464246E-1,4.9284467E-1,1.2538132E-1,3.425741E-1,7.6859385E-1,1.0779877E0,-2.043804E-1,1.6328442E0,2.5236876E0],"split_indices":[11,13,13,11,12,5,12,5,5,5,3,11,11,11,13,3,11,11,11,6,7,13,4,3,11,9,4,3,5,3,11,0,0,0,0,0,0,0,0,0,0,0,0,0,0,0,0,0,0,0,0,0,0,0,0,0,0,0,0,0,0,0,0],"split_type":[0,0,0,0,0,0,0,0,0,0,0,0,0,0,0,0,0,0,0,0,0,0,0,0,0,0,0,0,0,0,0,0,0,0,0,0,0,0,0,0,0,0,0,0,0,0,0,0,0,0,0,0,0,0,0,0,0,0,0,0,0,0,0],"sum_hessian":[7.184E5,4.54288E5,2.64112E5,2.47742E5,2.06546E5,1.53597E5,1.10515E5,1.11124E5,1.36618E5,1.08773E5,9.7773E4,4.4154E4,1.09443E5,9.3929E4,1.6586E4,9.883E3,1.01241E5,3.4802E4,1.01816E5,7.115E3,1.01658E5,8.6764E4,1.1009E4,3.121E4,1.2944E4,8.1191E4,2.8252E4,5.1182E4,4.2747E4,1.52E4,1.386E3,8.209E3,1.674E3,1.6668E4,8.4573E4,1.9575E4,1.5227E4,8.7011E4,1.4805E4,5.933E3,1.182E3,7.7274E4,2.4384E4,2.3452E4,6.3312E4,4.375E3,6.634E3,2.8985E4,2.225E3,9.764E3,3.18E3,6.6327E4,1.4864E4,7.171E3,2.1081E4,4.7386E4,3.796E3,5.51E3,3.7237E4,1.4934E4,2.66E2,1.204E3,1.82E2],"tree_param":{"num_deleted":"0","num_feature":"17","num_nodes":"63","size_leaf_vector":"1"}},{"base_weights":[1.20793105E-4,-2.1703641E0,3.3808703E0,-3.4531312E0,-8.961899E-1,2.270246E0,7.155459E0,-4.260578E0,-2.809812E0,-3.6815434E0,-4.8423946E-1,1.2012765E0,3.6340795E0,5.9018226E0,9.567732E0,-5.4280148E0,-3.9981952E0,-5.9546266E0,-2.6981232E0,-3.2939956E0,-5.0626087E0,-1.1045423E0,3.717557E-1,-7.93011E-2,1.8565141E0,2.1074524E0,4.307634E0,6.2100077E0,1.224601E0,5.6154284E0,1.046003E1,-5.996271E-1,-4.9390674E-1,-5.514261E-1,-3.74473E-1,-5.7368803E-1,-7.313597E-1,-2.4982488E-1,-4.1848388E-1,-3.9207295E-1,-2.1133983E-1,-4.658063E-1,-7.6079494E-1,3.2350626E-2,-1.4293805E-1,2.1988459E-1,-3.3763604E-4,-1.2404028E-1,2.6385763E-1,1.2585144E-1,3.3022493E-1,4.68574E-2,3.5032812E-1,4.6540132E-1,-4.8932616E-2,4.8324457E-1,7.144304E-1,-1.9643156E-1,3.7137383E-1,7.272777E-1,2.6746762E-1,9.418974E-1,1.3979732E0],"categories":[],"categories_nodes":[],"categories_segments":[],"categories_sizes":[],"default_left":[0,0,0,0,0,0,0,0,0,0,0,0,0,0,0,0,0,0,0,0,0,0,0,0,0,0,0,0,0,0,0,0,0,0,0,0,0,0,0,0,0,0,0,0,0,0,0,0,0,0,0,0,0,0,0,0,0,0,0,0,0,0,0],"id":20,"left_children":[1,3,5,7,9,11,13,15,17,19,21,23,25,27,29,31,33,35,37,39,41,43,45,47,49,51,53,55,57,59,61,-1,-1,-1,-1,-1,-1,-1,-1,-1,-1,-1,-1,-1,-1,-1,-1,-1,-1,-1,-1,-1,-1,-1,-1,-1,-1,-1,-1,-1,-1,-1,-1],"loss_changes":[5.271538E6,7.1509825E5,1.1775128E6,1.1323825E5,2.5185055E5,3.1640575E5,1.9305725E5,2.9591625E4,4.2605688E4,1.5119594E4,1.01530484E5,1.0209134E5,9.8049625E4,6.05665E4,7.694875E4,4.8987812E3,3.031325E4,1.1893125E3,3.4812125E4,1.6333609E4,6.3435938E3,5.1431812E4,5.506778E4,1.29968945E5,6.958084E4,6.678695E4,1.09944625E5,5.0707375E4,2.063725E4,1.9592914E4,6.5138875E4,0E0,0E0,0E0,0E0,0E0,0E0,0E0,0E0,0E0,0E0,0E0,0E0,0E0,0E0,0E0,0E0,0E0,0E0,0E0,0E0,0E0,0E0,0E0,0E0,0E0,0E0,0E0,0E0,0E0,0E0,0E0,0E0],"parents":[2147483647,0,0,1,1,2,2,3,3,4,4,5,5,6,6,7,7,8,8,9,9,10,10,11,11,12,12,13,13,14,14,15,15,16,16,17,17,18,18,19,19,20,20,21,21,22,22,23,23,24,24,25,25,26,26,27,27,28,28,29,29,30,30],"right_children":[2,4,6,8,10,12,14,16,18,20,22,24,26,28,30,32,34,36,38,40,42,44,46,48,50,52,54,56,58,60,62,-1,-1,-1,-1,-1,-1,-1,-1,-1,-1,-1,-1,-1,-1,-1,-1,-1,-1,-1,-1,-1,-1,-1,-1,-1,-1,-1,-1,-1,-1,-1,-1],"split_conditions":[5.5E1,3.3E1,9.3E1,2.3E1,1E0,7E1,1.07E2,1E0,1E0,3.6E1,4.5E1,1E0,-5E-1,1.2E1,3E0,2.3E1,1.2E1,4.9E1,1.2E1,4.5E1,1.2E1,2E0,2E0,8.5E1,8.660254E-1,1.5E1,1.2E1,-5E-1,8E0,-5E-1,1.3E2,-5.996271E-1,-4.9390674E-1,-5.514261E-1,-3.74473E-1,-5.7368803E-1,-7.313597E-1,-2.4982488E-1,-4.1848388E-1,-3.9207295E-1,-2.1133983E-1,-4.658063E-1,-7.6079494E-1,3.2350626E-2,-1.4293805E-1,2.1988459E-1,-3.3763604E-4,-1.2404028E-1,2.6385763E-1,1.2585144E-1,3.3022493E-1,4.68574E-2,3.5032812E-1,4.6540132E-1,-4.8932616E-2,4.8324457E-1,7.144304E-1,-1.9643156E-1,3.7137383E-1,7.272777E-1,2.6746762E-1,9.418974E-1,1.3979732E0],"split_indices":[11,11,13,12,5,13,11,5,5,12,11,5,7,3,5,11,11,6,3,11,3,5,5,11,7,4,3,7,4,8,11,0,0,0,0,0,0,0,0,0,0,0,0,0,0,0,0,0,0,0,0,0,0,0,0,0,0,0,0,0,0,0,0],"split_type":[0,0,0,0,0,0,0,0,0,0,0,0,0,0,0,0,0,0,0,0,0,0,0,0,0,0,0,0,0,0,0,0,0,0,0,0,0,0,0,0,0,0,0,0,0,0,0,0,0,0,0,0,0,0,0,0,0,0,0,0,0,0,0],"sum_hessian":[7.184E5,4.37512E5,2.80888E5,2.1802E5,2.19492E5,2.17031E5,6.3857E4,9.6675E4,1.21345E5,2.8279E4,1.91213E5,1.21669E5,9.5362E4,4.2022E4,2.1835E4,1.7737E4,7.8938E4,4.16E3,1.17185E5,2.2085E4,6.194E3,1.1087E5,8.0343E4,4.1183E4,8.0486E4,2.9195E4,6.6167E4,3.9424E4,2.598E3,4.023E3,1.7812E4,8.198E3,9.539E3,1.1304E4,6.7634E4,3.59E3,5.7E2,1.033E5,1.3885E4,1.4425E4,7.66E3,5.347E3,8.47E2,2.0546E4,9.0324E4,1.3685E4,6.6658E4,2.8856E4,1.2327E4,5.6937E4,2.3549E4,1.3429E4,1.5766E4,6.1711E4,4.456E3,1.5935E4,2.3489E4,1.139E3,1.459E3,2.572E3,1.451E3,1.3749E4,4.063E3],"tree_param":{"num_deleted":"0","num_feature":"17","num_nodes":"63","size_leaf_vector":"1"}},{"base_weights":[1.0916533E-4,-1.6923352E0,3.5461178E0,-2.6848235E0,2.1871433E-2,2.5578256E0,6.9099307E0,-3.449124E0,-1.8861538E0,-7.614247E-1,7.75636E-1,6.547002E-1,3.1792445E0,6.1302958E0,1.0144101E1,-4.4336996E0,-3.0985687E0,-3.1952302E0,-1.4585763E0,-4.1258817E0,-5.80342E-1,1.0063815E0,-1.1322529E0,-3.8762102E-1,3.6093652E0,2.749105E0,5.890289E0,7.1013546E0,4.835925E0,9.678114E0,1.7198116E1,-5.4360974E-1,-4.1537553E-1,-2.90794E-1,-4.485776E-1,-4.0529537E-1,-2.3164956E-1,-1.8904813E-1,-5.0227474E-2,-3.495249E-1,-6.6665125E-1,-9.028762E-2,4.893997E-2,2.2521599E-1,6.462605E-2,-5.475991E-1,2.0604256E-1,-6.1796806E-3,-4.9998045E-1,2.7595812E-1,6.749529E-1,3.1087187E-1,9.934476E-2,8.4283257E-1,5.019988E-1,8.69277E-1,5.818195E-1,2.0926201E-1,5.97268E-1,1.1019212E0,7.922666E-1,1.387301E0,2.0366552E0],"categories":[],"categories_nodes":[],"categories_segments":[],"categories_sizes":[],"default_left":[0,0,0,0,0,0,0,0,0,0,0,0,0,0,0,0,0,0,0,0,0,0,0,0,0,0,0,0,0,0,0,0,0,0,0,0,0,0,0,0,0,0,0,0,0,0,0,0,0,0,0,0,0,0,0,0,0,0,0,0,0,0,0],"id":21,"left_children":[1,3,5,7,9,11,13,15,17,19,21,23,25,27,29,31,33,35,37,39,41,43,45,47,49,51,53,55,57,59,61,-1,-1,-1,-1,-1,-1,-1,-1,-1,-1,-1,-1,-1,-1,-1,-1,-1,-1,-1,-1,-1,-1,-1,-1,-1,-1,-1,-1,-1,-1,-1,-1],"loss_changes":[4.311434E6,8.2735675E5,7.715895E5,1.8799425E5,1.0528268E5,2.1215962E5,1.328345E5,5.4304625E4,8.4295375E4,5.327364E4,4.000633E4,1.3600139E5,1.576885E5,5.3347875E4,3.3480125E4,1.1572125E4,3.067775E4,2.793825E4,4.689008E4,7.1321484E3,2.8631232E4,3.6368156E4,1.3598856E5,4.9057324E4,3.071136E4,7.368969E4,4.0861312E4,4.94975E4,5.676853E4,2.2522688E4,6.3863438E3,0E0,0E0,0E0,0E0,0E0,0E0,0E0,0E0,0E0,0E0,0E0,0E0,0E0,0E0,0E0,0E0,0E0,0E0,0E0,0E0,0E0,0E0,0E0,0E0,0E0,0E0,0E0,0E0,0E0,0E0,0E0,0E0],"parents":[2147483647,0,0,1,1,2,2,3,3,4,4,5,5,6,6,7,7,8,8,9,9,10,10,11,11,12,12,13,13,14,14,15,15,16,16,17,17,18,18,19,19,20,20,21,21,22,22,23,23,24,24,25,25,26,26,27,27,28,28,29,29,30,30],"right_children":[2,4,6,8,10,12,14,16,18,20,22,24,26,28,30,32,34,36,38,40,42,44,46,48,50,52,54,56,58,60,62,-1,-1,-1,-1,-1,-1,-1,-1,-1,-1,-1,-1,-1,-1,-1,-1,-1,-1,-1,-1,-1,-1,-1,-1,-1,-1,-1,-1,-1,-1,-1,-1],"split_conditions":[6.1E1,4.2E1,9.7E1,2.8E1,5.2E1,1E0,1.25E2,1.7E1,1E0,1E0,1.2E1,1.01E2,8.9E1,3.1E1,1.59E2,1.1E1,1.2E1,4.2E1,8.660254E-1,1.2E1,8.660254E-1,2E0,8E0,4.9E1,1.29E2,9.749279E-1,8E0,1.5E1,8E0,3.1E1,1.44E2,-5.4360974E-1,-4.1537553E-1,-2.90794E-1,-4.485776E-1,-4.0529537E-1,-2.3164956E-1,-1.8904813E-1,-5.0227474E-2,-3.495249E-1,-6.6665125E-1,-9.028762E-2,4.893997E-2,2.2521599E-1,6.462605E-2,-5.475991E-1,2.0604256E-1,-6.1796806E-3,-4.9998045E-1,2.7595812E-1,6.749529E-1,3.1087187E-1,9.934476E-2,8.4283257E-1,5.019988E-1,8.69277E-1,5.818195E-1,2.0926201E-1,5.97268E-1,1.1019212E0,7.922666E-1,1.387301E0,2.0366552E0],"split_indices":[11,13,12,11,12,5,13,12,5,5,3,11,11,6,12,12,3,11,7,3,7,5,4,6,11,9,4,4,4,6,11,0,0,0,0,0,0,0,0,0,0,0,0,0,0,0,0,0,0,0,0,0,0,0,0,0,0,0,0,0,0,0,0],"split_type":[0,0,0,0,0,0,0,0,0,0,0,0,0,0,0,0,0,0,0,0,0,0,0,0,0,0,0,0,0,0,0,0,0,0,0,0,0,0,0,0,0,0,0,0,0,0,0,0,0,0,0,0,0,0,0,0,0,0,0,0,0,0,0],"sum_hessian":[7.184E5,4.86299E5,2.32101E5,3.07983E5,1.78316E5,1.79396E5,5.2705E4,1.57376E5,1.50607E5,8.7445E4,9.0871E4,4.4159E4,1.35237E5,4.247E4,1.0235E4,4.1318E4,1.16058E5,3.7079E4,1.13528E5,4.465E3,8.298E4,8.1067E4,9.804E3,3.2644E4,1.1515E4,1.1672E5,1.8517E4,2.4263E4,1.8207E4,9.603E3,6.32E2,9.016E3,3.2302E4,1.02039E5,1.4019E4,1.8762E4,1.8317E4,7.8206E4,3.5322E4,3.579E3,8.86E2,6.3757E4,1.9223E4,1.8178E4,6.2889E4,4.153E3,5.651E3,3.0491E4,2.153E3,9.064E3,2.451E3,9.6876E4,1.9844E4,4.726E3,1.3791E4,1.0828E4,1.3435E4,5.335E3,1.2872E4,5.441E3,4.162E3,3.11E2,3.21E2],"tree_param":{"num_deleted":"0","num_feature":"17","num_nodes":"63","size_leaf_vector":"1"}},{"base_weights":[1.0662171E-4,-1.4882144E0,3.2736835E0,-2.4181442E0,5.8287296E-2,2.4228582E0,6.4499598E0,-3.3421762E0,-1.8706036E0,-4.1627955E0,1.7885256E-1,6.3302416E-1,3.002615E0,5.8473167E0,9.915397E0,-2.7476082E0,-3.80393E0,-3.0299304E0,-1.5393175E0,-3.616604E0,-7.4968095E0,-4.8715004E-1,8.6667275E-1,-5.2184695E-1,2.691757E0,2.3840613E0,4.829467E0,6.9924936E0,4.5915895E0,9.345645E0,1.5766425E1,-4.487786E-1,-2.602412E-1,-4.6975848E-1,-3.5111406E-1,-3.7326795E-1,-1.7733525E-1,-1.7705582E-1,-2.095679E-2,-4.523984E-1,-3.1575233E-1,-1.0502436E0,-4.4621712E-1,6.004423E-2,-8.151469E-2,2.6192006E-1,5.2142E-2,2.3757454E-2,-2.568092E-1,2.8742462E-1,-7.545517E-1,1.1712668E-1,2.8552774E-1,4.3217918E-1,7.87578E-1,9.029447E-1,5.740664E-1,3.0050585E-1,6.365539E-1,1.0635734E0,7.5346655E-1,1.0412606E0,1.8097012E0],"categories":[],"categories_nodes":[],"categories_segments":[],"categories_sizes":[],"default_left":[0,0,0,0,0,0,0,0,0,0,0,0,0,0,0,0,0,0,0,0,0,0,0,0,0,0,0,0,0,0,0,0,0,0,0,0,0,0,0,0,0,0,0,0,0,0,0,0,0,0,0,0,0,0,0,0,0,0,0,0,0,0,0],"id":22,"left_children":[1,3,5,7,9,11,13,15,17,19,21,23,25,27,29,31,33,35,37,39,41,43,45,47,49,51,53,55,57,59,61,-1,-1,-1,-1,-1,-1,-1,-1,-1,-1,-1,-1,-1,-1,-1,-1,-1,-1,-1,-1,-1,-1,-1,-1,-1,-1,-1,-1,-1,-1,-1,-1],"loss_changes":[3.5001505E6,7.1024925E5,6.0678025E5,1.560345E5,9.438124E4,1.8376719E5,9.90125E4,3.1494125E4,7.4374875E4,9.351086E3,8.259634E4,1.0302394E5,1.51147E5,5.8082875E4,2.3274812E4,1.2663625E4,1.6883188E4,3.800025E4,4.6315E4,1.8298281E3,6.5567344E3,3.2678809E4,5.3667914E4,4.31386E4,2.9113156E4,5.710775E4,5.2293125E4,5.384075E4,5.4240188E4,1.4884E4,7.5725938E3,0E0,0E0,0E0,0E0,0E0,0E0,0E0,0E0,0E0,0E0,0E0,0E0,0E0,0E0,0E0,0E0,0E0,0E0,0E0,0E0,0E0,0E0,0E0,0E0,0E0,0E0,0E0,0E0,0E0,0E0,0E0,0E0],"parents":[2147483647,0,0,1,1,2,2,3,3,4,4,5,5,6,6,7,7,8,8,9,9,10,10,11,11,12,12,13,13,14,14,15,15,16,16,17,17,18,18,19,19,20,20,21,21,22,22,23,23,24,24,25,25,26,26,27,27,28,28,29,29,30,30],"right_children":[2,4,6,8,10,12,14,16,18,20,22,24,26,28,30,32,34,36,38,40,42,44,46,48,50,52,54,56,58,60,62,-1,-1,-1,-1,-1,-1,-1,-1,-1,-1,-1,-1,-1,-1,-1,-1,-1,-1,-1,-1,-1,-1,-1,-1,-1,-1,-1,-1,-1,-1,-1,-1],"split_conditions":[6.2E1,4.2E1,9.9E1,2.4E1,1E0,1E0,1.31E2,5E-1,1E0,1.2E1,4.9E1,9.4E1,8.4E1,3.1E1,1.6E2,1E0,1.4E1,4.5E1,4.2E1,-5E-1,8E0,2E0,2E0,5.7E1,1.2E1,-5E-1,1.03E2,1.5E1,1.5E1,8E0,2.016E3,-4.487786E-1,-2.602412E-1,-4.6975848E-1,-3.5111406E-1,-3.7326795E-1,-1.7733525E-1,-1.7705582E-1,-2.095679E-2,-4.523984E-1,-3.1575233E-1,-1.0502436E0,-4.4621712E-1,6.004423E-2,-8.151469E-2,2.6192006E-1,5.2142E-2,2.3757454E-2,-2.568092E-1,2.8742462E-1,-7.545517E-1,1.1712668E-1,2.8552774E-1,4.3217918E-1,7.87578E-1,9.029447E-1,5.740664E-1,3.0050585E-1,6.365539E-1,1.0635734E0,7.5346655E-1,1.0412606E0,1.8097012E0],"split_indices":[11,12,13,11,5,5,13,8,5,3,11,11,11,6,13,5,11,11,11,7,4,5,5,12,3,7,11,4,4,3,2,0,0,0,0,0,0,0,0,0,0,0,0,0,0,0,0,0,0,0,0,0,0,0,0,0,0,0,0,0,0,0,0],"split_type":[0,0,0,0,0,0,0,0,0,0,0,0,0,0,0,0,0,0,0,0,0,0,0,0,0,0,0,0,0,0,0,0,0,0,0,0,0,0,0,0,0,0,0,0,0,0,0,0,0,0,0,0,0,0,0,0,0,0,0,0,0,0,0],"sum_hessian":[7.184E5,4.93866E5,2.24534E5,3.08413E5,1.85453E5,1.77097E5,4.7437E4,1.14752E5,1.93661E5,5.149E3,1.80304E5,4.333E4,1.33767E5,4.0412E4,7.025E3,5.0165E4,6.4587E4,4.3039E4,1.50622E5,4.426E3,7.23E2,9.1605E4,8.8699E4,2.7759E4,1.5571E4,9.9933E4,3.3834E4,2.1134E4,1.9278E4,6.404E3,6.21E2,3.861E3,4.6304E4,1.5935E4,4.8652E4,2.7601E4,1.5438E4,1.28309E5,2.2313E4,1.484E3,2.942E3,3.62E2,3.61E2,2.1225E4,7.038E4,1.4597E4,7.4102E4,2.0246E4,7.513E3,1.5299E4,2.72E2,2.7964E4,7.1969E4,2.9003E4,4.831E3,8.042E3,1.3092E4,1.0178E4,9.1E3,3.737E3,2.667E3,1.9E2,4.31E2],"tree_param":{"num_deleted":"0","num_feature":"17","num_nodes":"63","size_leaf_vector":"1"}},{"base_weights":[1.01025194E-4,-1.2179325E0,3.2740934E0,-2.2762654E0,2.3292152E-2,2.4789648E0,5.88113E0,-2.8166819E0,-1.4524064E0,-2.7510083E-1,1.6694963E0,3.305136E0,1.6339977E0,5.034576E0,7.998367E0,-3.8572059E0,-2.614848E0,-9.833476E-1,-2.018301E0,-2.1218448E0,1.0851257E-1,1.0770495E0,3.1086197E0,5.9560666E0,2.5609984E0,-4.6746936E-1,2.2980828E0,5.2081695E0,-1.3784759E0,7.6477113E0,1.4420884E1,-4.3218896E-1,-3.0748963E-1,-3.5520935E-1,-2.3292552E-1,2.6668767E-2,-1.2976378E-1,-3.7465373E-1,-1.3817684E-1,-1.457627E-1,-2.8522778E-1,-2.673305E-2,1.07066505E-1,1.2675726E-1,-2.1800867E-1,6.7041266E-1,1.6345681E-1,-3.6822426E-1,6.4939505E-1,1.8160729E-1,3.454424E-1,7.683536E-2,-5.761766E-1,1.3921379E-1,3.1351623E-1,3.818104E-1,5.880843E-1,-1.4548194E0,2.415659E-2,8.648263E-1,6.007312E-1,1.184863E0,1.7050772E0],"categories":[],"categories_nodes":[],"categories_segments":[],"categories_sizes":[],"default_left":[0,0,0,0,0,0,0,0,0,0,0,0,0,0,0,0,0,0,0,0,0,0,0,0,0,0,0,0,0,0,0,0,0,0,0,0,0,0,0,0,0,0,0,0,0,0,0,0,0,0,0,0,0,0,0,0,0,0,0,0,0,0,0],"id":23,"left_children":[1,3,5,7,9,11,13,15,17,19,21,23,25,27,29,31,33,35,37,39,41,43,45,47,49,51,53,55,57,59,61,-1,-1,-1,-1,-1,-1,-1,-1,-1,-1,-1,-1,-1,-1,-1,-1,-1,-1,-1,-1,-1,-1,-1,-1,-1,-1,-1,-1,-1,-1,-1,-1],"loss_changes":[2.8648668E6,6.8782144E5,4.0378762E5,1.2582775E5,1.1837413E5,1.0420025E5,8.1558625E4,3.583275E4,2.9715094E4,1.4452397E5,3.1524234E4,1.48871E5,1.02991484E5,3.6216125E4,2.9171375E4,1.0065469E4,3.825425E4,2.4050914E4,5.5811734E4,1.701936E4,6.1083773E4,1.6258945E4,5.7138555E4,8.57825E4,3.9216375E4,1.1595616E5,4.252228E4,2.9589062E4,1.830937E4,2.0186938E4,4.343875E3,0E0,0E0,0E0,0E0,0E0,0E0,0E0,0E0,0E0,0E0,0E0,0E0,0E0,0E0,0E0,0E0,0E0,0E0,0E0,0E0,0E0,0E0,0E0,0E0,0E0,0E0,0E0,0E0,0E0,0E0,0E0,0E0],"parents":[2147483647,0,0,1,1,2,2,3,3,4,4,5,5,6,6,7,7,8,8,9,9,10,10,11,11,12,12,13,13,14,14,15,15,16,16,17,17,18,18,19,19,20,20,21,21,22,22,23,23,24,24,25,25,26,26,27,27,28,28,29,29,30,30],"right_children":[2,4,6,8,10,12,14,16,18,20,22,24,26,28,30,32,34,36,38,40,42,44,46,48,50,52,54,56,58,60,62,-1,-1,-1,-1,-1,-1,-1,-1,-1,-1,-1,-1,-1,-1,-1,-1,-1,-1,-1,-1,-1,-1,-1,-1,-1,-1,-1,-1,-1,-1,-1,-1],"split_conditions":[6.6E1,3.9E1,1E2,3E1,6.9E1,3.1E1,1.22E2,1E0,3.1E1,1E0,8.660254E-1,8E0,8E0,1.2E1,1.59E2,3E1,1.6E1,8E0,8E0,3.6E1,8.660254E-1,1.2E1,8E0,2E0,8E1,1.2E1,7.5E1,-5E-1,2E0,3.1E1,1.44E2,-4.3218896E-1,-3.0748963E-1,-3.5520935E-1,-2.3292552E-1,2.6668767E-2,-1.2976378E-1,-3.7465373E-1,-1.3817684E-1,-1.457627E-1,-2.8522778E-1,-2.673305E-2,1.07066505E-1,1.2675726E-1,-2.1800867E-1,6.7041266E-1,1.6345681E-1,-3.6822426E-1,6.4939505E-1,1.8160729E-1,3.454424E-1,7.683536E-2,-5.761766E-1,1.3921379E-1,3.1351623E-1,3.818104E-1,5.880843E-1,-1.4548194E0,2.415659E-2,8.648263E-1,6.007312E-1,1.184863E0,1.7050772E0],"split_indices":[13,11,12,12,11,6,12,5,6,5,7,4,4,3,12,11,11,4,4,12,7,3,4,3,12,3,12,7,4,6,11,0,0,0,0,0,0,0,0,0,0,0,0,0,0,0,0,0,0,0,0,0,0,0,0,0,0,0,0,0,0,0,0],"split_type":[0,0,0,0,0,0,0,0,0,0,0,0,0,0,0,0,0,0,0,0,0,0,0,0,0,0,0,0,0,0,0,0,0,0,0,0,0,0,0,0,0,0,0,0,0,0,0,0,0,0,0,0,0,0,0,0,0,0,0,0,0,0,0],"sum_hessian":[7.184E5,5.23603E5,1.94797E5,2.82623E5,2.4098E5,1.49272E5,4.5525E4,1.70669E5,1.11954E5,2.04003E5,3.6977E4,7.5474E4,7.3798E4,3.2524E4,1.3001E4,2.7724E4,1.42945E5,6.1216E4,5.0738E4,3.5087E4,1.68916E5,2.6195E4,1.0782E4,1.6541E4,5.8933E4,1.7721E4,5.6077E4,3.1667E4,8.57E2,1.233E4,6.71E2,1.739E4,1.0334E4,3.3382E4,1.09563E5,1.2299E4,4.8917E4,1.3656E4,3.7082E4,1.8378E4,1.6709E4,1.21468E5,4.7448E4,2.4748E4,1.447E3,3.134E3,7.648E3,8.74E2,1.5667E4,3.2139E4,2.6794E4,1.4368E4,3.353E3,2.6932E4,2.9145E4,1.0329E4,2.1338E4,9.3E1,7.64E2,7.656E3,4.674E3,3.42E2,3.29E2],"tree_param":{"num_deleted":"0","num_feature":"17","num_nodes":"63","size_leaf_vector":"1"}},{"base_weights":[9.514633E-5,-1.5212972E0,2.1428628E0,-2.4061387E0,-7.618714E-1,1.0491354E0,3.9589071E0,-2.9622788E0,-2.037141E0,-1.3105338E0,-1.3776788E-1,-1.1813667E-1,1.4467449E0,3.3954036E0,6.759978E0,-2.4151566E0,-3.34164E0,-2.809656E0,-1.7610067E0,-7.912616E-1,-1.9136611E0,1.0671319E-1,-1.6273849E0,-1.5230118E0,8.4932715E-1,2.5106509E0,4.4746226E-1,2.1909387E0,3.9873338E0,6.388668E0,1.1179381E1,-2.603201E-1,-1.12779774E-1,-4.603425E-1,-3.163444E-1,-3.418127E-1,-1.9194107E-1,-1.4200826E-1,-2.3244515E-1,8.456778E-3,-1.6331391E-1,-2.7792177E-1,-1.2929446E-1,-7.552929E-2,5.304199E-2,-5.221655E-1,-4.212308E-3,-2.394747E-1,-6.1908823E-2,-3.586614E-2,1.248851E-1,2.9327706E-1,-7.35486E-1,-9.582603E-3,1.299198E-1,7.159143E-2,3.6663002E-1,4.3231073E-1,-3.2088306E-2,7.4343604E-1,5.066268E-1,1.0592484E0,1.9557971E0],"categories":[],"categories_nodes":[],"categories_segments":[],"categories_sizes":[],"default_left":[0,0,0,0,0,0,0,0,0,0,0,0,0,0,0,0,0,0,0,0,0,0,0,0,0,0,0,0,0,0,0,0,0,0,0,0,0,0,0,0,0,0,0,0,0,0,0,0,0,0,0,0,0,0,0,0,0,0,0,0,0,0,0],"id":24,"left_children":[1,3,5,7,9,11,13,15,17,19,21,23,25,27,29,31,33,35,37,39,41,43,45,47,49,51,53,55,57,59,61,-1,-1,-1,-1,-1,-1,-1,-1,-1,-1,-1,-1,-1,-1,-1,-1,-1,-1,-1,-1,-1,-1,-1,-1,-1,-1,-1,-1,-1,-1,-1,-1],"loss_changes":[2.3419835E6,2.8230338E5,5.924705E5,3.981275E4,7.741497E4,8.640417E4,1.7694875E5,1.605475E4,2.4877719E4,3.7678656E4,3.851983E4,6.4293918E4,1.4763325E5,6.654175E4,3.0741E4,7.6690938E3,1.0260594E4,1.663086E4,1.650375E4,4.7670715E4,2.990114E4,3.3185543E4,8.4966234E4,1.5199477E4,1.3520086E4,2.8011253E5,3.3136332E4,6.693709E4,9.053594E4,2.3918375E4,6.942703E3,0E0,0E0,0E0,0E0,0E0,0E0,0E0,0E0,0E0,0E0,0E0,0E0,0E0,0E0,0E0,0E0,0E0,0E0,0E0,0E0,0E0,0E0,0E0,0E0,0E0,0E0,0E0,0E0,0E0,0E0,0E0,0E0],"parents":[2147483647,0,0,1,1,2,2,3,3,4,4,5,5,6,6,7,7,8,8,9,9,10,10,11,11,12,12,13,13,14,14,15,15,16,16,17,17,18,18,19,19,20,20,21,21,22,22,23,23,24,24,25,25,26,26,27,27,28,28,29,29,30,30],"right_children":[2,4,6,8,10,12,14,16,18,20,22,24,26,28,30,32,34,36,38,40,42,44,46,48,50,52,54,56,58,60,62,-1,-1,-1,-1,-1,-1,-1,-1,-1,-1,-1,-1,-1,-1,-1,-1,-1,-1,-1,-1,-1,-1,-1,-1,-1,-1,-1,-1,-1,-1,-1,-1],"split_conditions":[5.3E1,3.1E1,8E1,2.1E1,4.4E1,-5E-1,1.16E2,5E-1,1E0,2.9E1,1.2E1,1.5E1,1.5E1,-5E-1,1.51E2,8E0,1.1E1,3.6E1,3.1E1,1.5E1,1.5E1,-5E-1,8E0,8E0,5.3E1,1.2E1,6.6E1,1.5E1,1.2E1,8E0,1.65E2,-2.603201E-1,-1.12779774E-1,-4.603425E-1,-3.163444E-1,-3.418127E-1,-1.9194107E-1,-1.4200826E-1,-2.3244515E-1,8.456778E-3,-1.6331391E-1,-2.7792177E-1,-1.2929446E-1,-7.552929E-2,5.304199E-2,-5.221655E-1,-4.212308E-3,-2.394747E-1,-6.1908823E-2,-3.586614E-2,1.248851E-1,2.9327706E-1,-7.35486E-1,-9.582603E-3,1.299198E-1,7.159143E-2,3.6663002E-1,4.3231073E-1,-3.2088306E-2,7.4343604E-1,5.066268E-1,1.0592484E0,1.9557971E0],"split_indices":[11,13,13,11,13,7,13,8,5,6,3,4,4,7,13,0,13,11,6,4,4,7,4,4,13,3,13,4,3,3,11,0,0,0,0,0,0,0,0,0,0,0,0,0,0,0,0,0,0,0,0,0,0,0,0,0,0,0,0,0,0,0,0],"split_type":[0,0,0,0,0,0,0,0,0,0,0,0,0,0,0,0,0,0,0,0,0,0,0,0,0,0,0,0,0,0,0,0,0,0,0,0,0,0,0,0,0,0,0,0,0,0,0,0,0,0,0,0,0,0,0,0,0,0,0,0,0,0,0],"sum_hessian":[7.184E5,4.20114E5,2.98286E5,1.94034E5,2.2608E5,1.86167E5,1.12119E5,7.7389E4,1.16645E5,1.20311E5,1.05769E5,4.7302E4,1.38865E5,9.3343E4,1.8776E4,3.1691E4,4.5698E4,3.0713E4,8.5932E4,6.4651E4,5.566E4,9.0858E4,1.4911E4,1.929E4,2.8012E4,6.7257E4,7.1608E4,3.0759E4,6.2584E4,1.7323E4,1.453E3,2.7651E4,4.04E3,5.652E3,4.0046E4,1.8242E4,1.2471E4,5.354E4,3.2392E4,3.1687E4,3.2964E4,2.3244E4,3.2416E4,2.9942E4,6.0916E4,4.563E3,1.0348E4,9.819E3,9.471E3,6.962E3,2.105E4,6.4498E4,2.759E3,4.3721E4,2.7887E4,1.5382E4,1.5377E4,5.8059E4,4.525E3,9.671E3,7.652E3,1.36E3,9.3E1],"tree_param":{"num_deleted":"0","num_feature":"17","num_nodes":"63","size_leaf_vector":"1"}},{"base_weights":[8.74627E-5,-1.0233965E0,2.6134717E0,-2.0435882E0,-2.1004635E-1,1.9968908E0,5.0318885E0,-2.5561934E0,-1.5903103E0,-4.1627088E-1,1.5033324E0,9.3657917E-1,2.42892E0,4.611778E0,7.956779E0,-3.603664E0,-2.4090827E0,-1.3968529E0,-2.8443506E0,-1.9628582E0,-1.0466987E-1,8.7611437E-1,2.918518E0,-1.2622665E0,1.6829511E0,2.6611168E0,-6.453097E-1,4.9205036E0,1.3386121E0,7.34876E0,1.2010761E1,-3.0309826E-1,-3.8903755E-1,-2.2822216E-1,-3.4004006E-1,-2.0555079E-1,-1.1145685E-1,-4.6368143E-1,-5.615405E-2,-1.4424561E-1,-2.650561E-1,1.3980153E-2,-1.1725407E-1,1.1866229E-2,2.8407598E-1,5.0980484E-1,1.9310509E-1,-2.8095058E-1,-3.7133228E-2,9.026875E-2,2.2525488E-1,5.1402116E-1,2.033942E-1,-5.052092E-1,3.013279E-1,5.127914E-1,4.8102852E-2,4.5609035E-2,3.4723306E-1,8.254091E-1,5.800521E-1,1.3270409E0,7.802297E-1],"categories":[],"categories_nodes":[],"categories_segments":[],"categories_sizes":[],"default_left":[0,0,0,0,0,0,0,0,0,0,0,0,0,0,0,0,0,0,0,0,0,0,0,0,0,0,0,0,0,0,0,0,0,0,0,0,0,0,0,0,0,0,0,0,0,0,0,0,0,0,0,0,0,0,0,0,0,0,0,0,0,0,0],"id":25,"left_children":[1,3,5,7,9,11,13,15,17,19,21,23,25,27,29,31,33,35,37,39,41,43,45,47,49,51,53,55,57,59,61,-1,-1,-1,-1,-1,-1,-1,-1,-1,-1,-1,-1,-1,-1,-1,-1,-1,-1,-1,-1,-1,-1,-1,-1,-1,-1,-1,-1,-1,-1,-1,-1],"loss_changes":[1.9215508E6,4.2835325E5,3.0145875E5,5.3204062E4,1.0149211E5,7.379581E4,5.0431625E4,1.6550812E4,2.9480594E4,1.2355255E5,2.738793E4,7.654567E4,8.1707625E4,3.6286875E4,1.2623219E4,2.1608281E3,1.1843E4,1.957464E4,6.6457266E4,1.5382234E4,5.570753E4,3.1820234E4,2.0384531E4,1.6292691E4,1.547368E4,1.6546031E5,1.2962484E5,3.0218E4,5.830231E3,6.2414062E3,3.4535547E3,0E0,0E0,0E0,0E0,0E0,0E0,0E0,0E0,0E0,0E0,0E0,0E0,0E0,0E0,0E0,0E0,0E0,0E0,0E0,0E0,0E0,0E0,0E0,0E0,0E0,0E0,0E0,0E0,0E0,0E0,0E0,0E0],"parents":[2147483647,0,0,1,1,2,2,3,3,4,4,5,5,6,6,7,7,8,8,9,9,10,10,11,11,12,12,13,13,14,14,15,15,16,16,17,17,18,18,19,19,20,20,21,21,22,22,23,23,24,24,25,25,26,26,27,27,28,28,29,29,30,30],"right_children":[2,4,6,8,10,12,14,16,18,20,22,24,26,28,30,32,34,36,38,40,42,44,46,48,50,52,54,56,58,60,62,-1,-1,-1,-1,-1,-1,-1,-1,-1,-1,-1,-1,-1,-1,-1,-1,-1,-1,-1,-1,-1,-1,-1,-1,-1,-1,-1,-1,-1,-1,-1,-1],"split_conditions":[6.5E1,3.4E1,1.02E2,2.4E1,7E1,-5E-1,1.35E2,1.2E1,1.2E1,1E0,1E0,8E0,1.2E1,9.749279E-1,1.59E2,5E-1,1.2E1,-5E-1,1.5E1,8E0,9.749279E-1,9.1E1,8E0,9E0,7.6E1,8E0,8E0,1.2E1,1.12E2,-5E-1,3.1E1,-3.0309826E-1,-3.8903755E-1,-2.2822216E-1,-3.4004006E-1,-2.0555079E-1,-1.1145685E-1,-4.6368143E-1,-5.615405E-2,-1.4424561E-1,-2.650561E-1,1.3980153E-2,-1.1725407E-1,1.1866229E-2,2.8407598E-1,5.0980484E-1,1.9310509E-1,-2.8095058E-1,-3.7133228E-2,9.026875E-2,2.2525488E-1,5.1402116E-1,2.033942E-1,-5.052092E-1,3.013279E-1,5.127914E-1,4.8102852E-2,4.5609035E-2,3.4723306E-1,8.254091E-1,5.800521E-1,1.3270409E0,7.802297E-1],"split_indices":[12,11,13,13,11,7,12,13,3,5,5,4,3,9,12,8,3,7,4,3,9,11,4,3,13,4,4,3,11,8,6,0,0,0,0,0,0,0,0,0,0,0,0,0,0,0,0,0,0,0,0,0,0,0,0,0,0,0,0,0,0,0,0],"split_type":[0,0,0,0,0,0,0,0,0,0,0,0,0,0,0,0,0,0,0,0,0,0,0,0,0,0,0,0,0,0,0,0,0,0,0,0,0,0,0,0,0,0,0,0,0,0,0,0,0,0,0,0,0,0,0,0,0,0,0,0,0,0,0],"sum_hessian":[7.184E5,5.16229E5,2.02171E5,2.28996E5,2.87233E5,1.611E5,4.1071E4,1.07463E5,1.21533E5,2.56376E5,3.0857E4,4.6639E4,1.14461E5,3.5915E4,5.156E3,1.3231E4,9.4232E4,1.05292E5,1.6241E4,4.2991E4,2.13385E5,2.1382E4,9.475E3,1.1819E4,3.482E4,1.06423E5,8.038E3,3.2819E4,3.096E3,4.486E3,6.7E2,4.418E3,8.813E3,8.3544E4,1.0688E4,3.1586E4,7.3706E4,9.097E3,7.144E3,2.4474E4,1.8517E4,1.73635E5,3.975E4,1.5433E4,5.949E3,2.953E3,6.522E3,4.318E3,7.501E3,1.4694E4,2.0126E4,2.1486E4,8.4937E4,3.646E3,4.392E3,3.1354E4,1.465E3,2.191E3,9.05E2,2.828E3,1.658E3,5.14E2,1.56E2],"tree_param":{"num_deleted":"0","num_feature":"17","num_nodes":"63","size_leaf_vector":"1"}},{"base_weights":[8.303929E-5,-8.8460004E-1,2.4944823E0,-1.6235056E0,1.00996055E-1,1.903231E0,4.4744263E0,-2.067293E0,-1.0263778E0,-2.5202456E-1,1.0089029E0,2.5013123E0,1.2941551E0,3.9761074E0,6.522287E0,-2.779442E0,-1.8386043E0,-3.8187902E0,-9.529627E-1,-8.4409606E-1,2.170371E-1,4.0378776E0,-3.358635E-2,3.9144971E0,1.5226489E0,-2.932669E-1,1.7979963E0,4.2696443E0,8.6436707E-1,2.6863801E0,7.5794454E0,-2.4555783E-1,-3.4723732E-1,-1.4236255E-1,-2.1915321E-1,-3.5682422E-1,-5.295744E-1,-5.265406E-3,-1.2075555E-1,-9.6956804E-2,1.16132535E-1,1.0254629E-1,-2.3898818E-2,1.842803E-1,4.9510118E-1,1.2525493E-1,-7.390347E-2,-2.668889E-1,4.289994E-1,3.148375E-2,1.9078536E-1,6.489455E-2,-4.3453833E-1,1.1403302E-1,2.4155417E-1,4.4425797E-1,-1.3980642E-1,-9.009515E-2,1.4893268E-1,-1.7303744E-1,3.750569E-1,6.089954E-1,9.009019E-1],"categories":[],"categories_nodes":[],"categories_segments":[],"categories_sizes":[],"default_left":[0,0,0,0,0,0,0,0,0,0,0,0,0,0,0,0,0,0,0,0,0,0,0,0,0,0,0,0,0,0,0,0,0,0,0,0,0,0,0,0,0,0,0,0,0,0,0,0,0,0,0,0,0,0,0,0,0,0,0,0,0,0,0],"id":26,"left_children":[1,3,5,7,9,11,13,15,17,19,21,23,25,27,29,31,33,35,37,39,41,43,45,47,49,51,53,55,57,59,61,-1,-1,-1,-1,-1,-1,-1,-1,-1,-1,-1,-1,-1,-1,-1,-1,-1,-1,-1,-1,-1,-1,-1,-1,-1,-1,-1,-1,-1,-1,-1,-1],"loss_changes":[1.5853356E6,3.8620934E5,2.2017338E5,8.031575E4,7.282906E4,5.2757562E4,4.4110125E4,2.8311125E4,2.6487531E4,4.543819E4,2.0088183E5,1.0106184E5,5.739558E4,3.1772E4,3.4298438E4,9.475219E3,1.9272031E4,1.2059648E3,2.8860719E4,1.8199328E4,3.3655453E4,3.26405E4,4.2942633E4,7.392544E4,2.0088156E4,6.601525E4,2.2120422E4,3.1164125E4,3.3111006E3,8.607965E3,1.40711875E4,0E0,0E0,0E0,0E0,0E0,0E0,0E0,0E0,0E0,0E0,0E0,0E0,0E0,0E0,0E0,0E0,0E0,0E0,0E0,0E0,0E0,0E0,0E0,0E0,0E0,0E0,0E0,0E0,0E0,0E0,0E0,0E0],"parents":[2147483647,0,0,1,1,2,2,3,3,4,4,5,5,6,6,7,7,8,8,9,9,10,10,11,11,12,12,13,13,14,14,15,15,16,16,17,17,18,18,19,19,20,20,21,21,22,22,23,23,24,24,25,25,26,26,27,27,28,28,29,29,30,30],"right_children":[2,4,6,8,10,12,14,16,18,20,22,24,26,28,30,32,34,36,38,40,42,44,46,48,50,52,54,56,58,60,62,-1,-1,-1,-1,-1,-1,-1,-1,-1,-1,-1,-1,-1,-1,-1,-1,-1,-1,-1,-1,-1,-1,-1,-1,-1,-1,-1,-1,-1,-1,-1,-1],"split_conditions":[6.7E1,4.1E1,1.01E2,3E1,8.660254E-1,3.1E1,1.22E2,6E0,1E0,5E1,8E0,1.5E1,8E0,9.749279E-1,4E0,5E0,5E-1,4.9E1,2E0,7.4E1,-5E-1,3E0,1.5E1,2E0,4E0,1.2E1,7.6E1,1.2E1,2.015E3,-5E-1,2.016E3,-2.4555783E-1,-3.4723732E-1,-1.4236255E-1,-2.1915321E-1,-3.5682422E-1,-5.295744E-1,-5.265406E-3,-1.2075555E-1,-9.6956804E-2,1.16132535E-1,1.0254629E-1,-2.3898818E-2,1.842803E-1,4.9510118E-1,1.2525493E-1,-7.390347E-2,-2.668889E-1,4.289994E-1,3.148375E-2,1.9078536E-1,6.489455E-2,-4.3453833E-1,1.1403302E-1,2.4155417E-1,4.4425797E-1,-1.3980642E-1,-9.009515E-2,1.4893268E-1,-1.7303744E-1,3.750569E-1,6.089954E-1,9.009019E-1],"split_indices":[13,11,12,12,7,6,11,1,5,13,4,4,4,9,5,1,8,6,5,11,8,3,4,3,3,3,12,